svm_type c_svc
kernel_type rbf
gamma 0.01098901098901099
nr_class 4
total_sv 230
rho 1.3098589094310125 -0.095881283283233643 0.52713406983746447 -0.89788557898130839 -0.97929217099180565 0.8610992400379841
label 1 2 3 4
nr_sv 41 98 16 75
SV
5 0 5 1:-0.002767024 2:-0.42907959 3:-0.30224311 4:-0.23340656 5:-0.15620631 6:0.095978819 7:-0.017909102 8:-0.051199559 9:-0.03072186 10:-0.078609087 11:0.17683865 12:-0.050839145 13:0.018099541 14:-0.008182268 15:0.10315849 16:-0.052107994 17:-0.04375422 18:0.1004803 19:0.095489398 20:0.007710028 21:0.017251607 22:0.00606932 23:-0.002021493 24:-0.000533768 25:0.010169278 26:0.010891891 27:0.065554105 28:-0.086267054 29:0.055383503 30:0.12483202 31:0.008401044 32:-0.005775983 33:-5.882e-05 34:0.026307607 35:0.023771696 36:-0.06410718 37:0.001806925 38:-0.076753244 39:-0.081312634 40:0.031339873 41:-0.007168679 42:-0.030785775 43:-0.013330355 44:0.048951671 45:0.000865026 46:-0.030616673 47:0.012675451 48:-0.2467261 49:-0.062130213 50:-0.019271877 51:0.008426274 52:-0.02310797 53:0.055147741 54:0.020221861 55:-0.012641763 56:0.005079659 57:-0.083965428 58:-0.076816261 59:0.001274629 60:-0.044939023 61:0.16530977 62:0.00391859 63:-0.034516603 64:-2.8108e-05 65:-0.039068948 66:0.034676962 67:0.041265126 68:0.1064642 69:0.038010407 70:0.027091175 71:0.007585532 72:-0.006083005 73:0.021561962 74:0.046071906 75:0.014127647 76:-0.029469531 77:0.000937491 78:0.084142633 79:0.066502556 80:-0.018114384 81:-0.028034242 82:0.006902036 83:-0.2703765 84:0.01054702 85:-0.029580386 86:-0.005110243 87:-0.026106888 88:-0.088913769 89:-0.003438182 90:0.099191807 91:0.005871814 
5 5 5 1:-0.002319496 2:-0.24497277 3:-0.13040198 4:-0.18491696 5:0.078555815 6:-0.063713901 7:-0.066879101 8:-0.00279193 9:-0.01356299 10:-0.038193416 11:0.16187154 12:-0.021977203 13:0.009785214 14:-0.000972736 15:0.060774464 16:-0.097551927 17:-0.060682315 18:0.10810897 19:0.001844656 20:-0.003413568 21:0.008265044 22:-0.00745024 23:0.048488736 24:-0.004403518 25:0.030388832 26:0.007213524 27:0.074590661 28:-0.028842302 29:0.039259072 30:0.077246621 31:9.9661e-05 32:0.001495129 33:0.03928408 34:-0.044563219 35:0.013841398 36:0.020951053 37:0.003239243 38:-0.24617982 39:-0.055634379 40:0.035493962 41:0.062780872 42:-0.064496383 43:0.000639335 44:0.070134662 45:-0.005535608 46:-0.00832609 47:0.00259829 48:-0.13895173 49:-0.037646022 50:-0.033070415 51:-0.043608282 52:0.010122529 53:0.040340357 54:-0.004357279 55:-0.013133951 56:0.007692657 57:-0.001076754 58:0.008185278 59:0.003775075 60:0.045883089 61:0.11290415 62:0.01427048 63:-0.022373239 64:0.00182804 65:-0.081770897 66:0.043989249 67:0.025507731 68:0.23157157 69:0.04888963 70:0.015405893 71:0.004055561 72:0.060506787 73:0.043408971 74:0.017250411 75:0.015300184 76:0.01453314 77:0.004480425 78:-0.019592017 79:0.04849904 80:0.007314316 81:0.033432633 82:0.002323415 83:-0.35056466 84:-0.053788856 85:-0.002124143 86:-0.005756431 87:-0.013387758 88:-0.085111164 89:-0.002347836 90:0.03818563 91:0.001532462 
5 5 5 1:-0.00162352 2:-0.22445446 3:-0.18971986 4:-0.17870945 5:-0.035401765 6:0.039232466 7:-0.058639377 8:-0.061365698 9:0.030518228 10:-0.024185959 11:0.19073211 12:-0.007708815 13:0.014482565 14:7.1411e-05 15:0.18570347 16:-0.066820212 17:-0.05592557 18:0.11871105 19:-0.050996121 20:-0.043201484 21:0.029581513 22:0.057383411 23:0.074373119 24:-0.017801596 25:0.027036455 26:0.01050452 27:0.015953509 28:-0.071049392 29:0.038252082 30:-0.009651332 31:-0.035657145 32:-0.003750887 33:0.013407418 34:0.14067307 35:0.005659644 36:-0.096621998 37:0.00086878 38:-0.11632821 39:-0.067297317 40:0.031203557 41:-0.040130757 42:0.11191058 43:-0.029812753 44:0.007716886 45:-0.020212071 46:-0.043363832 47:0.002349788 48:-0.21125945 49:-0.077901214 50:0.002356224 51:0.12597121 52:0.052650977 53:-0.029219383 54:-0.002820779 55:-0.037310351 56:0.000389213 57:0.070510544 58:-0.05367526 59:0.030167004 60:0.040415429 61:0.18068488 62:0.027973875 63:-0.029471895 64:0.006529542 65:0.045413136 66:0.007439617 67:0.044287063 68:0.19224583 69:0.017435092 70:0.009908405 71:0.008466966 72:-0.21075168 73:0.003806617 74:0.04372618 75:0.002607066 76:-0.11615063 77:-0.008498461 78:-0.037174001 79:0.013863659 80:-0.023876181 81:-0.10390028 82:-0.000208632 83:-0.3282665 84:-0.041471269 85:-0.022979893 86:-0.010682496 87:-0.005323298 88:-0.049882647 89:-0.001574691 90:0.2128218 91:0.009739513 
0 0 5 1:0.000231935 2:-0.66340482 3:-0.30098158 4:-0.13070805 5:0.24330449 6:0.010008289 7:-0.014871272 8:0.15759668 9:0.015797978 10:0.11994283 11:0.061897259 12:0.12449981 13:-0.010060068 14:0.008193524 15:0.12954526 16:-0.087934166 17:0.12682094 18:0.20671354 19:-0.001270275 20:0.00945 21:0.10732099 22:0.1009218 23:0.14173332 24:-0.14205831 25:0.010733099 26:0.003257948 27:-0.05665138 28:-0.025585584 29:0.093946569 30:0.12329244 31:0.048728298 32:0.016871328 33:0.1585349 34:0.08820384 35:-0.13813315 36:-0.026538754 37:-0.006793352 38:-0.30191621 39:-0.000554684 40:0.08998812 41:0.13933794 42:0.10608151 43:0.009157535 44:0.10476317 45:-0.079790652 46:-0.047687694 47:-0.018429145 48:-0.13015898 49:-0.069089048 50:0.060012061 51:0.18262695 52:0.1352938 53:-0.001721438 54:-0.16299795 55:0.010768509 56:-0.008560739 57:-0.055733331 58:0.029627884 59:0.009272509 60:0.24946655 61:0.047969524 62:-0.018743355 63:-0.015170084 64:-0.001629932 65:-0.050495908 66:0.070517443 67:0.1604912 68:0.17690027 69:-0.10133219 70:-0.03512473 71:-0.010704179 72:-0.12093392 73:0.081798457 74:0.13522454 75:-0.17113917 76:-0.068602577 77:-0.015362621 78:-0.12726994 79:0.096045129 80:-0.094743401 81:-0.11497264 82:-0.018864751 83:-0.10526199 84:-0.086876728 85:-0.05264245 86:-0.009885902 87:0.15194832 88:0.004623163 89:0.018835362 90:0.15496534 91:0.006677242 
5 4.2631460227608393 5 1:-0.002829156 2:-0.55020267 3:-0.27025795 4:-0.15793888 5:-0.12760344 6:-0.065281242 7:-0.10183962 8:-0.040003706 9:-0.026122289 10:0.032933239 11:0.120395 12:0.000551749 13:-0.035350733 14:-0.010624902 15:0.31759816 16:-0.10021502 17:0.087579772 18:0.053962596 19:-0.025680451 20:-0.021503391 21:0.034774337 22:0.035325427 23:0.11754814 24:-0.079719387 25:0.010760962 26:0.014797674 27:-0.12243453 28:-0.16456327 29:0.19463205 30:0.024054136 31:0.009682861 32:0.01948148 33:0.029782856 34:0.059082195 35:-0.025008036 36:0.020080997 37:-0.007301362 38:-0.03748849 39:-0.1314287 40:0.057117313 41:-0.052368794 42:0.021439791 43:-0.00654032 44:0.067493603 45:-0.020277126 46:0.001455029 47:0.016554244 48:-0.093809798 49:-0.040394805 50:0.055229131 51:0.026400225 52:0.096333079 53:0.017947216 54:-0.036056362 55:0.009476851 56:0.010602877 57:0.042475406 58:-0.070073314 59:0.037674345 60:0.066633105 61:0.11836379 62:0.000733582 63:-0.035546914 64:0.003317283 65:0.020905701 66:0.009266395 67:0.15263717 68:0.12761156 69:-0.030343311 70:-0.007216701 71:0.00515072 72:-0.091879129 73:-0.051466156 74:0.18749706 75:-0.026728183 76:-0.002486542 77:-0.003605051 78:-0.13236092 79:-0.034765262 80:-0.068620682 81:-0.001673624 82:-0.00102089 83:-0.24065152 84:-0.017436849 85:0.004418168 86:-0.001925011 87:0.054562807 88:-0.060813211 89:0.002984402 90:0.029611014 91:0.003428508 
0 0 5 1:0.001306464 2:-0.99978393 3:-0.00385869 4:-0.15056902 5:0.41423544 6:-0.12237921 7:-0.10170369 8:0.038052998 9:-0.061766595 10:0.16265197 11:-0.044891477 12:0.01383585 13:-0.037888046 14:0.003204082 15:0.059865139 16:-0.35171071 17:-0.46559188 18:0.25857362 19:-0.088874206 20:-0.063921005 21:0.013485435 22:0.005878704 23:0.1076657 24:-0.044374648 25:0.007863595 26:-0.021649905 27:0.47726536 28:0.26507953 29:-0.17197652 30:-0.042090386 31:0.075547442 32:0.017234227 33:0.16536796 34:-0.009999011 35:-0.081596993 36:0.023279814 37:0.034428231 38:-0.217418 39:0.10373729 40:0.074688531 41:0.19225129 42:-0.021134783 43:-0.060616218 44:0.06261225 45:-0.004554699 46:0.005929559 47:-0.031008722 48:0.031398825 49:-0.085467026 50:-0.15046604 51:0.020442229 52:0.1745632 53:-0.033862505 54:-0.084715538 55:0.009567936 56:-0.002943204 57:0.099434353 58:0.069747359 59:-0.004649441 60:0.37811825 61:0.007057814 62:0.030342977 63:-0.023263173 64:0.013552356 65:-0.027029397 66:-0.01526037 67:-0.16131149 68:0.21050909 69:-0.036251225 70:-0.01578231 71:-0.013689937 72:-0.016327946 73:0.21569134 74:-0.10766438 75:-0.14101101 76:-0.004498282 77:0.000270985 78:-0.1167815 79:0.15284836 80:0.072692893 81:0.019847697 82:-0.027745187 83:0.006860989 84:-0.13310109 85:-0.035937224 86:-0.0082294 87:0.043792024 88:-0.030230207 89:0.015338081 90:0.063633971 91:0.002728665 
0 0 5 1:-0.001857594 2:-0.95339805 3:-0.15168342 4:-0.064431503 5:0.38804299 6:-0.20560175 7:-0.095934302 8:-0.03174885 9:-0.053408694 10:0.14800899 11:-0.10713172 12:-0.025373362 13:-0.013319043 14:-0.008184998 15:0.040631514 16:-0.36571509 17:-0.52538216 18:0.14426911 19:-0.024866337 20:-0.024528751 21:-0.006478214 22:-0.03229386 23:0.044651709 24:0.023374178 25:0.031128654 26:-0.003687022 27:0.41389644 28:0.28018564 29:-0.18079159 30:0.089769565 31:-0.010315238 32:-0.000873958 33:0.092072539 34:-0.033450183 35:-0.004951126 36:0.03302934 37:0.026169175 38:-0.18808314 39:0.060772717 40:0.035082698 41:0.16028626 42:-0.055593353 43:0.039722066 44:0.008701838 45:0.003118488 46:0.021841692 47:-0.010603757 48:0.11200446 49:-0.041924439 50:-0.17971638 51:-0.025891464 52:0.10474404 53:0.035208229 54:0.005740086 55:-0.003448508 56:0.013622917 57:-0.031915657 58:0.022281896 59:-0.015326156 60:0.34575406 61:-0.068431973 62:0.0068979 63:-0.039875675 64:0.001290361 65:0.061079688 66:0.03166873 67:-0.14531343 68:0.12256842 69:0.057404619 70:0.003351411 71:0.004532333 72:0.084464543 73:0.17634499 74:-0.075658411 75:-0.022882927 76:0.018007753 77:0.004828284 78:-0.15822372 79:0.07141979 80:0.017696269 81:0.035511985 82:-0.013310817 83:0.025246255 84:-0.057255402 85:-0.029992359 86:0.006444707 87:-0.057685111 88:-0.078637779 89:-0.000327117 90:-0.009094127 91:0.001978109 
5 5 5 1:0.001176661 2:-0.10176896 3:-0.19076987 4:-0.16918713 5:0.14364031 6:0.070594348 7:-0.052459978 8:0.022611586 9:-0.025429107 10:0.11114854 11:0.030209385 12:0.017482255 13:0.010410558 14:0.024038389 15:-0.024937503 16:-0.053378537 17:-0.060435049 18:0.20172247 19:-0.054988652 20:-0.050733101 21:-0.015433417 22:-0.042208556 23:0.10396197 24:-0.052559897 25:0.004178211 26:-0.006362699 27:0.10611613 28:0.077596143 29:0.022581987 30:-0.003380107 31:0.081378095 32:0.005969963 33:0.1167991 34:-0.034015302 35:-0.054982919 36:0.042890254 37:0.004470733 38:-0.29888669 39:0.076363161 40:0.028974934 41:0.072161086 42:-0.08125975 43:-0.055012707 44:0.076557353 45:0.008199688 46:0.044647988 47:-0.016858744 48:-0.18584062 49:-0.049005747 50:0.004461234 51:-0.071828201 52:0.14128725 53:-0.036547359 54:-0.052896276 55:-0.003599755 56:-0.011985593 57:0.081455275 58:0.014101798 59:0.001420615 60:0.17112292 61:0.085429803 62:0.030535225 63:0.004947204 64:0.008594716 65:-0.11610622 66:-0.018255128 67:0.015877454 68:0.12563358 69:-0.031153275 70:-0.005399557 71:-0.008097908 72:0.09918642 73:0.12601863 74:0.015076437 75:-0.032152254 76:0.051411677 77:0.006641728 78:-0.17530303 79:0.10851375 80:-0.020331878 81:0.079637945 82:-0.018970689 83:-0.13752352 84:-0.049976788 85:-0.023997204 86:-0.011423891 87:0.031814735 88:0.004114704 89:0.006168866 90:-0.092611678 91:-0.007776436 
0 0 2.2407324812713019 1:0.001235253 2:-0.2833783 3:-0.23871593 4:-0.18736491 5:0.19898939 6:0.10983724 7:-0.043985665 8:0.081002966 9:-0.042632803 10:0.027186517 11:0.092798486 12:0.028411798 13:-0.002747938 14:0.017995378 15:0.016952209 16:-0.055776648 17:-0.091697708 18:0.20859321 19:-0.07492286 20:-0.062091243 21:-0.004994205 22:-0.03565507 23:0.094438866 24:-0.067379609 25:0.013277303 26:-0.006555902 27:0.11909395 28:0.026905853 29:0.04807464 30:-0.00501098 31:0.12795316 32:0.006139155 33:0.083543487 34:-0.03286247 35:-0.0281708 36:0.026190188 37:0.003710873 38:-0.39191118 39:0.075226359 40:0.02925162 41:0.05380122 42:-0.063004188 43:-0.050253935 44:0.096629545 45:0.0084227 46:0.023926891 47:-0.017798301 48:-0.24146783 49:-0.061039247 50:0.008184202 51:-0.056306414 52:0.12245242 53:-0.052351568 54:-0.075660899 55:0.004023836 56:-0.014768656 57:0.070291795 58:0.023386262 59:-0.008047178 60:0.14008272 61:0.14435796 62:0.048239771 63:-0.003051963 64:0.011733199 65:-0.045264173 66:-0.004445763 67:0.019105082 68:0.192182 69:-0.055477638 70:0.007010567 71:-0.010164949 72:0.12900534 73:0.078273684 74:0.012479311 75:-0.01392411 76:0.028705919 77:0.005797374 78:-0.1069451 79:0.12162362 80:-0.028105078 81:0.068840891 82:-0.013875619 83:-0.20404398 84:-0.062881924 85:-0.014646068 86:-0.018444214 87:-0.015656531 88:-0.012962297 89:0.00907347 90:-0.07681755 91:-0.002026204 
5 0 5 1:-0.001526999 2:-0.40463451 3:-0.25363904 4:-0.23134172 5:0.099557392 6:-0.027617034 7:-0.07209222 8:-0.021381535 9:-0.048142612 10:0.096112333 11:-0.011387506 12:-0.020798357 13:-0.018388759 14:0.006078791 15:0.12762843 16:-0.070826039 17:-0.078597322 18:0.16345933 19:-0.03702338 20:-0.052720886 21:-0.008141359 22:-0.027012656 23:0.079490967 24:-0.012294759 25:-0.007938885 26:0.007776359 27:0.15579008 28:-0.014048305 29:0.013079516 30:0.021362988 31:0.039098691 32:0.000742419 33:0.088750586 34:-0.028732052 35:-0.020601567 36:0.048826125 37:0.004294165 38:-0.2753672 39:-0.003104641 40:0.031507418 41:0.062500864 42:-0.062028587 43:-0.019015532 44:0.029767394 45:0.007575909 46:0.04738529 47:-0.004468267 48:-0.12066937 49:-0.061417408 50:-0.038704786 51:-0.033466883 52:0.12303191 53:-0.011569773 54:-0.025751848 55:0.00726691 56:0.001634976 57:0.015128901 58:-0.012644952 59:-0.008378639 60:0.19832501 61:0.03806679 62:0.017616119 63:0.009781891 64:0.004245668 65:-0.063556701 66:0.013342362 67:0.005223399 68:0.12983647 69:-0.001778503 70:-0.006128766 71:0.00108564 72:0.071838289 73:0.047371533 74:0.004923282 75:-0.036473926 76:0.043513127 77:0.003996439 78:-0.19906141 79:0.041934177 80:-0.002264266 81:0.062645897 82:-0.010379213 83:-0.10204643 84:-0.039048184 85:-0.021486061 86:-0.001590478 87:0.010380502 88:-0.020739676 89:0.001310988 90:-0.057640109 91:-0.00250367 
5 0 5 1:0.002176639 2:-1.4815139 3:-0.38279423 4:-0.19669828 5:-0.3300916 6:0.032823 7:-0.16442372 8:0.084789187 9:-0.058546558 10:0.16385753 11:-0.11656506 12:0.10631229 13:-0.005479108 14:-0.01373635 15:0.21605127 16:0.09768115 17:0.099438168 18:0.067225203 19:-0.071128868 20:-0.033332486 21:0.086740233 22:0.054283276 23:0.093968712 24:-0.065872326 25:-0.082025275 26:-0.012834474 27:0.036889728 28:0.057838339 29:0.33860859 30:0.032518882 31:0.17972885 32:0.024994159 33:0.13850702 34:0.043740164 35:-0.077299021 36:0.078813933 37:-0.032155629 38:0.15554501 39:0.22120614 40:0.064495519 41:-0.008025629 42:0.062743887 43:-0.020826384 44:0.038767561 45:-0.04964282 46:0.10939086 47:0.001345183 48:0.13755478 49:-0.000682845 50:0.19109033 51:0.079077944 52:0.26235709 53:-0.00936006 54:-0.18111646 55:0.060918987 56:-0.021320153 57:0.12010775 58:0.10315754 59:0.064302847 60:0.15936747 61:0.013770596 62:0.008623305 63:0.077803671 64:0.00831601 65:0.14155209 66:0.076325089 67:0.22032019 68:-0.002050141 69:-0.155571 70:-0.004392126 71:-0.015083794 72:-0.029493203 73:0.18980803 74:0.14692769 75:-0.052475017 76:0.14474717 77:-0.009494499 78:-0.041725747 79:0.12564166 80:-0.17864461 81:0.081337757 82:-0.02778214 83:0.054203395 84:-0.18749416 85:0.082319148 86:-0.005312873 87:-0.10525039 88:0.083519191 89:0.023642534 90:-0.004673943 91:-0.014368482 
5 0 5 1:0.002048438 2:-0.79334718 3:-0.28494805 4:-0.16032483 5:0.015231499 6:0.022685213 7:-0.11200183 8:0.034529805 9:-0.053147759 10:0.14799714 11:-0.047548212 12:0.061812241 13:0.001224497 14:0.008953042 15:0.21984482 16:0.020439342 17:0.13768059 18:0.19538635 19:-0.002998712 20:-0.020852305 21:0.029589072 22:0.000228783 23:0.10596478 24:-0.010578021 25:-0.0041326 26:0.003289788 27:-0.074214742 28:-0.074339405 29:0.2415873 30:0.070049047 31:0.071911804 32:0.012949469 33:0.14517419 34:-0.004687947 35:-0.048190013 36:0.086312957 37:-0.017861634 38:-0.16616696 39:-0.005111567 40:0.07364621 41:0.010786999 42:-0.035854306 43:-0.005180771 44:0.048190899 45:-0.02991678 46:0.094523542 47:-0.010762056 48:-0.15244974 49:-0.023037864 50:0.11537084 51:-0.0203532 52:0.19228083 53:0.014985195 54:-0.091514707 55:0.009789197 56:-0.013467855 57:0.002520015 58:0.034254424 59:0.007129582 60:0.1713163 61:0.047060378 62:0.005992061 63:0.031487454 64:0.00312192 65:-0.004007374 66:0.0420333 67:0.1936551 68:0.096433513 69:0.018004682 70:-0.006330105 71:-0.008864634 72:0.05444929 73:0.12122651 74:0.12829496 75:0.046077859 76:0.094025843 77:0.000331303 78:-0.056723043 79:0.063422084 80:-0.088603869 81:0.10414108 82:-0.028405683 83:-0.044685509 84:-0.12132504 85:0.04336527 86:-0.010771132 87:-0.067609847 88:-0.001290755 89:0.005493869 90:-0.051017296 91:-0.012431268 
0 0 0.50363114321601565 1:0.005157017 2:-1.7758493 3:-0.50316918 4:-0.082889237 5:-0.30563736 6:-0.07624387 7:-0.20194699 8:0.17534579 9:-0.058376309 10:0.23490289 11:-0.078739636 12:0.072005168 13:-0.005000377 14:-0.004644406 15:0.26629812 16:-0.007922845 17:0.23541228 18:0.05742142 19:-0.11511879 20:-0.073067226 21:0.12014469 22:0.10985532 23:0.16015241 24:-0.046429295 25:-0.10796106 26:-0.002355545 27:-0.24609287 28:-0.096498556 29:0.46858558 30:-0.019653657 31:0.095899791 32:0.013055177 33:0.1635955 34:0.076389715 35:-0.056154009 36:0.12610166 37:-0.05470001 38:0.036336098 39:0.032290302 40:0.054110717 41:-0.081025518 42:0.084478341 43:-0.063314348 44:0.065903537 45:-0.045367762 46:0.1461013 47:0.004289526 48:0.010230423 49:-0.028876776 50:0.20286775 51:0.11975928 52:0.29252985 53:-0.021674147 54:-0.19664791 55:0.11159323 56:-0.020926062 57:0.15535317 58:0.1177991 59:0.12013628 60:0.20612042 61:0.037351556 62:0.002197536 63:0.14045429 64:0.012880061 65:0.15105821 66:0.085501216 67:0.445149 68:0.042291623 69:-0.049918421 70:-0.029155184 71:-0.018960055 72:-0.057057958 73:0.10696734 74:0.2861039 75:0.019375544 76:0.1323853 77:-0.017463438 78:-0.13866755 79:0.087592833 80:-0.15460396 81:0.05249377 82:-0.046023063 83:-0.004970891 84:-0.15373913 85:0.13735402 86:-0.015484299 87:-0.10281102 88:0.080546014 89:0.021979367 90:-0.036290407 91:-0.022126365 
5 5 5 1:0.000379021 2:-0.40508154 3:-0.23334753 4:-0.19296588 5:-0.13542224 6:0.014688262 7:-0.068187565 8:0.0196246 9:0.013484815 10:0.029694591 11:0.085800603 12:0.012328308 13:-0.030317262 14:0.001370925 15:0.043928057 16:-0.011264955 17:0.039983474 18:0.063167259 19:-0.043522552 20:-0.060047541 21:0.074269086 22:0.070086963 23:0.10889979 24:-0.036399018 25:-0.006756763 26:-0.005852438 27:-0.015622664 28:-0.012376497 29:0.1444222 30:0.03062867 31:0.048464246 32:-0.026713431 33:0.077177696 34:0.097439677 35:-0.018335292 36:0.016988678 37:-0.004707355 38:-0.068357989 39:0.075738959 40:0.041270893 41:-0.040685125 42:0.045622058 43:-0.052760027 44:0.089296035 45:-0.037166208 46:-8.7969e-05 47:0.006126174 48:-0.14726478 49:-0.045635868 50:0.01893826 51:0.036358461 52:0.08046516 53:-0.032403603 54:-0.041436993 55:0.014852573 56:-0.003738191 57:0.077464499 58:0.031964555 59:0.006803034 60:0.021581778 61:0.094395004 62:0.036690976 63:-0.000369611 64:0.009865334 65:0.013539149 66:0.06624651 67:0.075837016 68:0.070839927 69:-0.000637038 70:-0.004636704 71:-0.007231636 72:-0.086168282 73:0.091334783 74:0.086458601 75:0.037926905 76:0.004846354 77:-0.011244641 78:-0.048603136 79:0.12043765 80:-0.02774616 81:-0.01586478 82:-0.012410914 83:-0.20107727 84:-0.066775449 85:0.005039037 86:-0.015893413 87:-0.037512347 88:-0.000184482 89:0.004299626 90:0.070276432 91:0.000423418 
5 5 5 1:0.000327021 2:-0.28634036 3:-0.1754486 4:-0.18686017 5:0.059391472 6:0.027357953 7:-0.034158859 8:-0.010273451 9:-0.015658554 10:0.03951925 11:0.008625304 12:0.024261251 13:-0.023891155 14:0.011902904 15:0.00643146 16:-0.045086686 17:-0.05110921 18:0.16893755 19:-0.027985478 20:-0.047953635 21:0.008613766 22:0.011996441 23:0.062779874 24:-0.045059342 25:0.019423546 26:-0.003518753 27:0.062689245 28:0.077184625 29:0.032430191 30:0.018740641 31:0.04810451 32:-0.010536652 33:0.050959948 34:-0.00145169 35:-0.041401677 36:0.004278712 37:0.002522571 38:-0.19208455 39:0.076756679 40:0.036974479 41:0.057016879 42:-0.019859036 43:-0.03526061 44:0.044766463 45:-0.017623883 46:-0.014252569 47:-0.005844363 48:-0.16831493 49:-0.046258293 50:-0.011342116 51:-0.002483941 52:0.097534589 53:-0.022277618 54:-0.045843307 55:-0.004908251 56:-0.002686084 57:0.034054413 58:0.020484529 59:0.020450182 60:0.1072454 61:0.0644041 62:0.040989351 63:-0.028069772 64:0.009588304 65:-0.053493951 66:0.032192506 67:0.049409814 68:0.12552451 69:-0.026041407 70:0.013996821 71:-0.005269179 72:-0.017073443 73:0.088355832 74:0.014558123 75:-0.057573881 76:-0.004674656 77:-0.001742473 78:-0.12283234 79:0.095707074 80:-0.023423241 81:-0.003024179 82:-0.00970435 83:-0.12711462 84:-0.080301598 85:-0.009159457 86:-0.007186752 87:0.048988458 88:-0.04001395 89:0.008866645 90:0.029233197 91:0.004004915 
5 5 5 1:-0.000391033 2:-0.15927902 3:-0.23496783 4:-0.18814293 5:-0.017946493 6:0.21344876 7:-0.037761476 8:-0.046588883 9:-0.026045553 10:-0.004374567 11:0.06366279 12:0.008333586 13:-0.011095642 14:0.012497701 15:0.19630101 16:-0.053184044 17:-0.023436408 18:0.20941973 19:-0.011648778 20:-0.048783846 21:0.022461515 22:0.007599338 23:0.032477513 24:-0.059704926 25:0.028448211 26:0.010055013 27:0.045356188 28:-0.07943932 29:0.050146326 30:0.024473542 31:0.02309639 32:-0.007382777 33:0.003593536 34:0.019314462 35:-0.025518177 36:-0.019884601 37:0.001338171 38:-0.18988691 39:-0.083449744 40:0.045166362 41:0.00078732 42:0.004047478 43:-0.020433197 44:0.03083857 45:-0.016145257 46:-0.01973623 47:-0.004506509 48:-0.30195803 49:-0.041829716 50:-0.006019122 51:0.033835113 52:0.07954523 53:-0.032575898 54:-0.019923959 55:-0.009193004 56:-0.010675367 57:-0.010912334 58:-0.045310762 59:-0.000847647 60:0.039404925 61:0.13735372 62:0.027979253 63:-0.04516039 64:0.005981042 65:0.009218166 66:0.026915442 67:0.033156864 68:0.11316601 69:-0.056572571 70:0.021573028 71:0.001307382 72:-0.011287109 73:-0.011116017 74:0.008961864 75:-0.060745224 76:-0.017703634 77:-0.002451004 78:-0.066622198 79:0.005012274 80:-0.011876035 81:-0.026343513 82:-0.004409885 83:-0.12021934 84:-0.007530952 85:0.000613045 86:-0.008604699 87:0.069026701 88:-0.050716739 89:0.007178257 90:0.019149994 91:0.005583948 
0 0 5 1:-0.001676179 2:-0.79248202 3:-0.24991435 4:-0.19340604 5:0.024551367 6:-0.055391572 7:-0.10256407 8:0.07653857 9:-0.076606795 10:0.16731858 11:-0.019344 12:0.057720266 13:-0.050715875 14:-0.002560202 15:0.0111313 16:-0.06845098 17:0.005924954 18:0.14134137 19:-0.061503157 20:-0.08294493 21:-0.000399733 22:-0.029982215 23:0.11869008 24:-0.085712403 25:-0.026686329 26:-0.003510713 27:-0.02111152 28:0.13427372 29:0.13483816 30:0.013878386 31:0.097885489 32:0.00075651 33:0.12850162 34:-0.018974662 35:-0.1049818 36:0.020808831 37:-0.000277632 38:-0.21521647 39:0.11483441 40:0.061762221 41:0.12462474 42:-0.051392775 43:-0.005279814 44:0.072417341 45:0.012756499 46:0.008516003 47:-0.004087506 48:-0.11161993 49:-0.066585802 50:0.001309933 51:-0.012808685 52:0.17050961 53:-0.003516543 54:-0.12920238 55:0.02557111 56:0.002284562 57:0.050488431 58:0.071810849 59:-0.019906977 60:0.21774249 61:0.045979224 62:0.027011281 63:0.006209172 64:0.00636913 65:-0.081868164 66:-0.00027756 67:0.12065512 68:0.13742822 69:-0.10270922 70:-0.021646159 71:-0.005776217 72:0.090221472 73:0.1167836 74:0.073444001 75:-0.1585539 76:-0.000729332 77:0.003883989 78:-0.22223787 79:0.13142963 80:-0.043891102 81:-0.010753959 82:-0.015685963 83:-0.1235527 84:-0.12592673 85:-0.00546099 86:-0.00332038 87:0.12399679 88:-0.010212995 89:0.012672607 90:0.036038764 91:0.001082818 
5 5 5 1:-0.000429282 2:-0.22922489 3:-0.18638399 4:-0.19066572 5:-0.097257763 6:0.10378557 7:-0.026554178 8:-0.031316683 9:-0.024695564 10:0.03273797 11:0.091938779 12:-0.008162451 13:-0.020690659 14:0.015486313 15:0.074063577 16:-0.063906632 17:-0.042695191 18:0.12141124 19:0.052875414 20:-0.020112827 21:0.014018739 22:0.024914181 23:0.081796274 24:-0.001251919 25:0.015993709 26:0.004052365 27:0.081476375 28:-0.030338431 29:0.0093273 30:0.072029188 31:0.041290902 32:-0.001793769 33:-0.001003181 34:0.04181993 35:0.035375576 36:-0.020881424 37:0.002815474 38:-0.16220106 39:0.004324893 40:0.015645171 41:-0.004474288 42:0.011641967 43:-0.018748779 44:0.030989707 45:0.002463732 46:-0.010888364 47:-0.001260368 48:-0.26021454 49:-0.057272218 50:-0.02126845 51:0.040403035 52:0.040253233 53:0.01277674 54:-0.01381558 55:0.004005305 56:-0.008676961 57:-0.032219827 58:-0.0119705 59:0.001073725 60:0.030808002 61:0.10095065 62:0.017524498 63:-0.032144744 64:-0.001142732 65:-0.027930006 66:0.013667199 67:0.056225616 68:0.088147469 69:0.016144965 70:-0.005447411 71:0.001154136 72:-0.064021923 73:0.012882888 74:0.027329937 75:0.015254259 76:-0.042208165 77:-0.002439206 78:-0.11124591 79:0.072328635 80:0.00168872 81:-0.033337105 82:-0.003820684 83:-0.26406139 84:-0.043453358 85:-0.001827241 86:-0.010638637 87:-0.04609951 88:-0.035984807 89:-0.001338094 90:0.076799132 91:0.005145673 
5 5 5 1:-0.001709867 2:-0.055434477 3:-0.16502506 4:-0.15966085 5:-0.16371639 6:-0.044535376 7:-0.037855223 8:-0.04912772 9:-0.014877653 10:-0.002493278 11:0.021888871 12:-0.014255396 13:-0.018905548 14:0.000848411 15:0.19680265 16:-0.055225685 17:-0.046394885 18:0.000368674 19:0.013723086 20:-0.006433001 21:0.022630867 22:0.014415381 23:0.037882913 24:0.041109342 25:0.015316295 26:0.011110371 27:0.081975952 28:-0.079489447 29:-0.001260917 30:0.037283484 31:-0.009028919 32:0.023932723 33:-0.023785425 34:0.022233684 35:0.045651205 36:-0.001684025 37:0.004081245 38:-0.069986768 39:-0.063889541 40:0.021271376 41:-0.030373264 42:0.026188072 43:-0.007291911 44:-0.029593499 45:0.005067738 46:-0.014728585 47:0.008842322 48:-0.10435 49:-0.060090378 50:-0.02341097 51:0.054313529 52:-0.000709907 53:-0.001023144 54:0.002057223 55:-0.004909034 56:0.006444996 57:-0.029120887 58:-0.062105551 59:-0.008197297 60:-0.004210845 61:0.001346386 62:-0.006552587 63:-0.039496221 64:0.000760178 65:0.013781901 66:-0.012042959 67:0.034629442 68:0.01636087 69:0.029272785 70:-0.021443091 71:0.005140212 72:-0.097450331 73:-0.029797645 74:0.013879959 75:0.01905725 76:-0.040622026 77:-0.002931836 78:-0.087578274 79:0.001811125 80:0.005031638 81:-0.041505683 82:0.001381444 83:-0.16615175 84:-0.006811551 85:-0.00113411 86:0.001293616 87:-0.062077936 88:-0.017372476 89:-0.003171289 90:0.10517973 91:0.004578346 
5 5 5 1:-0.000476109 2:-0.18712583 3:-0.15421882 4:-0.17029677 5:-0.14271496 6:0.089575201 7:-0.054336544 8:-0.035855446 9:0.004567484 10:-0.04091505 11:0.12933193 12:-0.01054169 13:0.001185686 14:0.010475652 15:0.16716391 16:-0.027224937 17:-0.010824354 18:0.072812736 19:0.00876704 20:-0.023307681 21:0.026576066 22:0.006451717 23:0.012965034 24:0.027259558 25:0.019090325 26:0.009586609 27:-0.015121144 28:-0.10191111 29:0.070865683 30:0.0400954 31:0.034180015 32:0.018924024 33:-0.021733873 34:0.09342885 35:0.031481527 36:-0.050601169 37:-0.00275384 38:-0.043324109 39:-0.07503394 40:0.023647416 41:-0.023304839 42:0.088779368 43:-0.033893455 44:0.028610412 45:0.011355733 46:-0.020650484 47:0.006496887 48:-0.19875626 49:-0.067320094 50:0.017415933 51:0.069376759 52:-0.025254795 53:0.005792109 54:-0.003128309 55:-0.024582259 56:-0.006099283 57:0.017011454 58:-0.045139056 59:0.016593352 60:-0.048282284 61:0.14311525 62:0.014360926 63:-0.050836403 64:0.002115625 65:0.007357188 66:-0.010035703 67:0.053486049 68:0.075797029 69:0.046913151 70:-0.009342688 71:0.002631664 72:-0.1393138 73:0.023063514 74:0.067062058 75:0.039226197 76:-0.069029368 77:-0.009624403 78:0.022343794 79:0.024893561 80:-0.018056238 81:-0.04285486 82:0.002905796 83:-0.26207441 84:-0.036083404 85:-0.025301568 86:-0.013017815 87:-0.090179577 88:-0.044667825 89:-0.003692199 90:0.13340974 91:0.010216272 
5 0 5 1:-0.000759972 2:-0.45542517 3:-0.22585528 4:-0.22031519 5:-0.11318869 6:-0.062996626 7:-0.082901925 8:0.024176868 9:-0.045456689 10:0.032241572 11:0.14574736 12:0.017928358 13:-0.030146912 14:0.010400012 15:0.10592299 16:-0.041669615 17:0.00901623 18:0.058524854 19:-0.078405075 20:-0.073469616 21:0.031405509 22:0.02693142 23:0.099878743 24:-0.085813135 25:0.019731902 26:0.001979017 27:0.00756178 28:0.022805568 29:0.096692726 30:-0.012308646 31:0.080150455 32:0.007541391 33:0.04706734 34:0.047893342 35:-0.003511387 36:-0.024588799 37:-0.003803221 38:-0.12525959 39:0.063736744 40:0.022198807 41:0.047627367 42:0.021454014 43:-0.022287149 44:0.12582071 45:-0.00885378 46:-0.016924545 47:-0.001132809 48:-0.070195667 49:-0.064529218 50:0.047816511 51:0.060769364 52:0.053563036 53:-0.040168971 54:-0.073157661 55:0.009173379 56:-0.001341302 57:0.084817529 58:0.008448814 59:0.019740606 60:0.071413085 61:0.11931959 62:0.037801579 63:-0.050618492 64:0.007802664 65:-0.083453722 66:0.003568436 67:0.082132205 68:0.16399647 69:-0.048318524 70:0.002265675 71:-0.004764523 72:-0.069539368 73:-0.00468445 74:0.098796606 75:-0.054412812 76:-0.044178389 77:-0.002936401 78:-0.15120798 79:0.11910165 80:-0.051644504 81:-0.04816658 82:-0.006894291 83:-0.28317973 84:-0.062864237 85:-0.024628557 86:-0.014858956 87:0.036493786 88:-0.045143645 89:0.006204612 90:0.093478791 91:0.005175203 
0 0 5 1:-0.001386572 2:-0.5319801 3:-0.22646853 4:-0.2329385 5:0.15231861 6:0.092516907 7:-0.063966334 8:0.050858919 9:-0.046237074 10:0.18077338 11:-0.038842048 12:0.038971994 13:-0.011536446 14:0.006475077 15:-0.11854155 16:-0.088358104 17:-0.042236231 18:0.2682786 19:-0.044636771 20:-0.045396157 21:0.008538052 22:-0.002657789 23:0.10480358 24:-0.063198775 25:-0.01690389 26:-0.005574761 27:0.088369317 28:0.14059445 29:0.037930433 30:0.009743801 31:0.064587198 32:0.005578795 33:0.12220781 34:-0.007485908 35:-0.10331236 36:0.030736392 37:0.004306423 38:-0.33332011 39:0.083625473 40:0.037367489 41:0.11467982 42:-0.034985885 43:-0.061526272 44:0.037715875 45:0.008804906 46:0.047916066 47:-0.008774325 48:-0.21931466 49:-0.034686711 50:-0.038665667 51:0.013897671 52:0.20750537 53:-0.031380471 54:-0.08780437 55:0.02144894 56:-0.002947317 57:0.099377297 58:0.052276384 59:0.000615428 60:0.26680282 61:0.0371386 62:0.025304364 63:0.00964871 64:0.008215734 65:-0.12872933 66:0.005858898 67:0.036071412 68:0.11764904 69:-0.060441703 70:-0.017807368 71:-0.004527983 72:-0.006614828 73:0.18142532 74:0.026301647 75:-0.14611487 76:0.058776215 77:0.001300048 78:-0.25449193 79:0.11264201 80:-0.002616243 81:0.042937476 82:-0.016465358 83:-0.097281024 84:-0.11184014 85:-0.0276035 86:-0.001440475 87:0.13370942 88:-0.000579427 89:0.009430874 90:-0.033853326 91:-0.003017874 
5 5 5 1:-0.000310239 2:-0.009719244 3:-0.071872927 4:-0.13757396 5:0.022687815 6:-0.000383245 7:-0.040671054 8:-0.035975426 9:0.001810085 10:-0.006953312 11:0.085274242 12:-0.007938921 13:-0.007130666 14:0.003351879 15:0.079156771 16:-0.11887739 17:-0.11786459 18:0.075104125 19:-0.06795276 20:-0.022190602 21:-0.008858264 22:-0.00194397 23:0.045158725 24:-0.020730775 25:0.019157443 26:-0.006180887 27:0.13199703 28:0.055748209 29:-0.017185928 30:-0.005311355 31:-0.049765937 32:-0.016305074 33:0.016100284 34:-0.018061683 35:-0.008206972 36:-0.004366264 37:0.009873694 38:-0.13300131 39:-0.015492331 40:0.018260637 41:-0.013026654 42:-0.041473959 43:-0.03098667 44:0.013285157 45:-0.00745352 46:-0.022444157 47:-0.004419157 48:-0.21798143 49:-0.033753723 50:-0.043602202 51:-0.054921083 52:0.023062054 53:-0.039565563 54:-0.00175396 55:-0.016898224 56:0.001281559 57:0.16704093 58:0.007369119 59:0.016761016 60:0.036173884 61:0.078348331 62:0.019912802 63:-0.021021789 64:0.006869262 65:0.089504868 66:-0.008745797 67:-0.004314466 68:0.13096887 69:0.005835371 70:0.011243058 71:0.002406832 72:0.025838509 73:0.059435301 74:-0.042292524 75:-0.013752812 76:-0.019005323 77:0.004619986 78:-0.013008675 79:0.10175009 80:-0.002223141 81:-0.010185346 82:-0.002451207 83:-0.22711971 84:-0.032180484 85:-0.011837908 86:-0.00945101 87:0.028580809 88:-0.033129916 89:0.001453005 90:0.079523452 91:0.002615171 
0 0 5 1:0.006430154 2:-0.39444485 3:-0.071886659 4:-0.072881415 5:0.16887493 6:0.08902663 7:-0.055005256 8:0.020301254 9:-0.031223567 10:-0.028005635 11:0.04734363 12:-0.012440136 13:-0.018003548 14:0.045165345 15:0.095001124 16:-0.24238844 17:-0.31872788 18:0.2403459 19:-0.034527291 20:-0.056034245 21:-0.002628408 22:-0.003420928 23:0.02753534 24:-0.007263381 25:0.013913995 26:-0.017431861 27:0.30219734 28:0.11104815 29:-0.14924575 30:-0.027315006 31:0.095658876 32:0.010061981 33:0.03894005 34:-0.028902886 35:-0.005748259 36:0.017238326 37:0.030189663 38:-0.2772015 39:0.02168362 40:0.07752642 41:0.14383712 42:-0.04288125 43:-0.033521034 44:0.078431495 45:-0.006822008 46:-0.016055735 47:-0.041230369 48:-0.198397 49:-0.11574312 50:-0.13607538 51:-0.020558601 52:0.023936497 53:-0.035213303 54:-0.013284523 55:-0.000520867 56:-0.024162272 57:0.056419186 58:0.025312388 59:0.024275629 60:0.044533309 61:0.078932084 62:0.018201604 63:-0.011119144 64:0.011376969 65:-0.10081644 66:-0.000779005 67:-0.014082474 68:0.1955373 69:0.006931405 70:-0.001262142 71:-0.022379121 72:0.073198289 73:0.062329967 74:-0.12835747 75:-0.026933454 76:0.017367447 77:0.00199527 78:-0.002628054 79:0.13414465 80:0.00460978 81:0.011192726 82:-0.01374946 83:-0.17925221 84:-0.044952914 85:-0.028742092 86:-0.025373923 87:-0.012186571 88:-0.047370154 89:0.008389634 90:0.00411744 91:0.001440938 
4.4448872432670603 0 0 1:0.003093937 2:-0.59896606 3:-0.23249362 4:-0.20655945 5:-0.038300581 6:0.0550237 7:-0.065602437 8:-0.057452116 9:-0.006826925 10:-0.04383355 11:0.12296144 12:-0.028285129 13:-0.016929191 14:0.010826514 15:0.12528452 16:-0.081060514 17:-0.21538241 18:0.10262353 19:-0.071661063 20:-0.005725707 21:-0.006605168 22:0.029325752 23:0.050184418 24:0.01150178 25:0.02433962 26:-0.001236765 27:0.19810089 28:-0.066306286 29:-0.06436827 30:0.046581153 31:-0.021461744 32:-0.020417752 33:0.001629082 34:0.066455059 35:0.019671198 36:0.032303017 37:0.016362462 38:-0.040373281 39:0.045089535 40:0.002316447 41:0.030181697 42:0.045625009 43:-0.031988803 44:0.015589496 45:-0.012993732 46:-0.010923109 47:-0.004932525 48:-0.18771139 49:-0.086938597 50:-0.082605205 51:0.016504345 52:0.055824805 53:-0.023555014 54:0.033607058 55:-0.011536434 56:-0.018115811 57:0.1067342 58:-0.11375248 59:0.004275039 60:0.011826435 61:0.17380452 62:0.026448637 63:-0.006001466 64:0.010652202 65:0.08858303 66:0.078536831 67:0.011652918 68:0.14035204 69:0.034657001 70:0.009038572 71:0.005613752 72:-0.039799362 73:0.053347278 74:-0.043369032 75:0.036917005 76:0.003778011 77:-0.006436985 78:0.024135316 79:0.094319969 80:-0.015197706 81:0.036222905 82:-0.002194102 83:-0.25263205 84:-0.050736092 85:-0.041363347 86:-0.024353221 87:-0.072719269 88:-0.0682071 89:-0.003132488 90:0.022178438 91:-0.00106235 
0 0 5 1:0.00187698 2:-1.0619313 3:-0.056212481 4:-0.16160892 5:0.58307374 6:0.025496524 7:-0.069572419 8:0.053917017 9:-0.010662305 10:0.11130344 11:-0.042469803 12:-0.020851303 13:-0.020036848 14:-0.001460044 15:0.25307542 16:-0.16397241 17:0.12843148 18:0.29156524 19:-0.014270028 20:-0.017196197 21:0.027911019 22:0.027317118 23:0.06803675 24:-0.018855706 25:-0.005064171 26:0.013803828 27:0.041409105 28:-0.30191842 29:0.12040125 30:0.037623778 31:0.10344728 32:0.001657678 33:0.11509585 34:0.017613156 35:-0.039942276 36:0.036871169 37:-0.007535797 38:-0.12176631 39:-0.25687051 40:0.025754035 41:0.2906878 42:-0.001621299 43:-0.065332405 44:0.067620307 45:-0.01026322 46:0.031422779 47:-0.032262459 48:0.024429297 49:-0.073683776 50:0.042853553 51:0.033868805 52:0.063573562 53:-0.011299738 54:-0.016057963 55:0.005603141 56:-0.006911188 57:0.082040228 58:-0.16483298 59:-0.026223492 60:0.23855361 61:0.013289971 62:0.016841665 63:0.013420787 64:0.008051639 65:-0.030475067 66:0.038955159 67:0.098515466 68:0.17794034 69:0.011182355 70:-0.010454009 71:-0.013504287 72:0.012611075 73:0.025105791 74:0.0778929 75:-0.064006224 76:0.028968185 77:-0.007304225 78:0.018925909 79:-0.032079116 80:-0.022404268 81:0.07576564 82:-0.021955434 83:0.011475433 84:-0.010403617 85:0.023799369 86:-0.007847046 87:-0.012280377 88:-0.06073232 89:0.006728745 90:0.01411109 91:-0.001877028 
0 0 4.9346826720019363 1:0.00378308 2:-1.3553888 3:-0.045265451 4:-0.16454184 5:0.52144384 6:0.089459613 7:-0.033687241 8:-0.07550282 9:0.078296594 10:-0.004853585 11:0.014498456 12:-0.027964212 13:0.008722464 14:-0.018232677 15:0.29195851 16:-0.22119592 17:0.16220938 18:0.37917155 19:0.083999433 20:0.036126986 21:0.053707071 22:0.10026792 23:0.047100276 24:-0.026794579 25:0.02878803 26:0.024456752 27:0.02865666 28:-0.45668587 29:0.17943798 30:0.21603905 31:0.066197135 32:0.068939038 33:0.033273712 34:0.12166996 35:-0.009946365 36:-0.072765 37:-0.016004622 38:0.10478637 39:-0.25165495 40:0.08975406 41:0.13689835 42:0.15811118 43:0.029489582 44:0.043917097 45:-0.043557063 46:-0.069716796 47:-0.044959337 48:0.15003893 49:-0.10810859 50:0.031194206 51:0.21473305 52:0.083781101 53:0.076391585 54:0.026757352 55:-0.064168341 56:-0.026554164 57:0.010370279 58:-0.1954256 59:0.04069259 60:0.12924241 61:0.11520559 62:-0.004504508 63:-0.070469789 64:-0.011453161 65:0.091584958 66:0.053264756 67:0.092632309 68:0.25783667 69:-0.013776975 70:-0.061596557 71:-0.006204922 72:-0.028852884 73:-0.001251847 74:0.12280302 75:-0.019680791 76:-0.14855574 77:-0.027086254 78:0.1620198 79:-0.091066711 80:-0.038263414 81:-0.18118192 82:-0.017035067 83:0.065259948 84:-0.012635316 85:-0.048297249 86:-0.019549165 87:-0.042443279 88:-0.023132134 89:0.007142505 90:0.12679267 91:0.019355066 
0 0 4.2642646036432446 1:0.006090662 2:-1.1765136 3:0.01984914 4:-0.23182426 5:0.58272338 6:0.31094131 7:-0.025223553 8:-0.055310141 9:0.097124621 10:-0.014452551 11:0.01537354 12:-0.025196703 13:0.031133363 14:-0.009668138 15:0.30402473 16:-0.030005377 17:-0.10051376 18:0.50111616 19:0.056229532 20:0.004630038 21:-0.017557146 22:0.076213703 23:0.02043106 24:0.006991916 25:0.000139263 26:0.029915286 27:0.1394299 28:-0.3727735 29:-0.000927324 30:0.19801424 31:-0.014432081 32:-0.010067943 33:-0.024544194 34:0.081697464 35:0.015877292 36:-0.031060437 37:0.000911143 38:0.12895232 39:-0.19212791 40:0.029788585 41:0.041356292 42:0.075520143 43:0.002020166 44:-0.029288715 45:0.014066353 46:-0.055988293 47:-0.059362348 48:0.16640845 49:-0.1356983 50:-0.018846722 51:0.026788067 52:0.058068693 53:0.033031061 54:0.011399148 55:-0.058253177 56:-0.044493664 57:0.013737832 58:-0.13919036 59:0.028989403 60:0.041994333 61:0.14644153 62:-0.00737622 63:3.9779e-05 64:-0.012421395 65:0.087596893 66:0.12733413 67:0.046215724 68:0.19327308 69:0.01663851 70:-0.010186157 71:0.002075123 72:-0.013235476 73:0.023982933 74:0.021629667 75:-0.032772083 76:-0.030869523 77:-0.014878641 78:0.14861774 79:-0.028515212 80:-0.014557065 81:-0.026163302 82:-0.011986143 83:0.082410194 84:0.026464235 85:-0.033549562 86:-0.020140238 87:-0.055972084 88:-0.063315563 89:0.003250824 90:0.093379639 91:0.011296073 
5 0 5 1:-0.002323634 2:-0.91760147 3:-0.15360843 4:-0.32290533 5:-0.16588505 6:-0.17895141 7:-0.12355368 8:-0.088510893 9:-0.046274479 10:-0.013871925 11:0.14609437 12:-0.062925421 13:-0.015673405 14:-0.010049275 15:0.18645333 16:-0.12658708 17:-0.061099682 18:-0.058235414 19:-0.029945258 20:-0.020198567 21:-0.012364499 22:-0.031222865 23:0.098148033 24:0.016765477 25:0.022729361 26:0.00915091 27:0.1234403 28:-0.081500337 29:0.053640898 30:0.051835995 31:-0.0974131 32:0.008729096 33:0.026475335 34:-0.022570558 35:0.03245943 36:-0.020363526 37:0.000637554 38:0.063500524 39:-0.16732801 40:0.043906648 41:-0.033738602 42:-0.056485567 43:0.000270783 44:0.005062119 45:0.016776683 46:-0.031191401 47:0.013115691 48:0.024121348 49:-0.048611086 50:-0.027174998 51:-0.033597123 52:-0.015401156 53:0.040793549 54:0.027712369 55:0.000358876 56:0.018918341 57:0.029065346 58:-0.047299646 59:-0.012054642 60:0.035096645 61:0.010608439 62:0.002365749 63:-0.053063456 64:0.002547594 65:0.04852679 66:0.002229348 67:0.044394646 68:0.081547432 69:0.081564367 70:-0.007675161 71:0.010450141 72:0.04327004 73:0.067252025 74:0.066377915 75:0.026772786 76:-0.012388579 77:0.005394718 78:0.023469051 79:0.078893192 80:-0.007910198 81:-0.030812334 82:-0.002862688 83:-0.26364425 84:-0.022414461 85:-0.004511523 86:-0.009079426 87:-0.060398225 88:-0.12466812 89:-0.004905926 90:0.10924533 91:0.004926454 
5 0 2.5391795018292931 1:-0.003984779 2:-1.8310549 3:0.38168734 4:0.13116954 5:-0.14922318 6:0.39352906 7:0.006046135 8:-0.027628435 9:-0.026915321 10:0.046968818 11:0.084751189 12:0.036049414 13:0.043302044 14:-0.06382753 15:0.4216074 16:-0.70060486 17:0.28324592 18:0.31055766 19:-0.32799876 20:-0.13719287 21:0.065019026 22:0.084871739 23:0.082639188 24:-0.13926628 25:-0.077830739 26:0.034313675 27:0.1643993 28:-0.60536921 29:0.56413603 30:-0.20268674 31:0.13547529 32:-0.028926581 33:0.057484649 34:0.077592663 35:-0.075311817 36:0.11533383 37:-0.01562275 38:0.54939318 39:-0.79167789 40:-0.18117289 41:0.053632163 42:0.068610616 43:-0.16155112 44:0.072207518 45:-0.032337829 46:0.024912428 47:0.017672477 48:0.52168578 49:0.10796005 50:0.089396283 51:0.11503603 52:0.043358143 53:-0.2126305 54:-0.035698958 55:0.05679189 56:0.008712725 57:0.056294531 58:-0.28355789 59:0.039782178 60:-0.007617919 61:0.19237417 62:0.13510793 63:0.048745684 64:0.024921279 65:0.26251426 66:-0.019613482 67:0.17793098 68:0.15084296 69:-0.14970264 70:-0.089061037 71:0.006321756 72:0.05289188 73:-0.015710311 74:0.36474994 75:-0.12553862 76:0.24931863 77:-0.005066899 78:0.32863742 79:-0.30059588 80:-0.20652318 81:0.14866902 82:-0.001841888 83:0.26216996 84:0.1798797 85:0.1564239 86:-0.001257982 87:-0.14505781 88:-0.28986281 89:0.007635404 90:0.12353766 91:-0.004429555 
5 0 0 1:-0.003985323 2:-1.3978465 3:-0.37171003 4:-0.34178451 5:-0.4191671 6:-0.33430454 7:-0.14703485 8:-0.10676993 9:-0.030611571 10:-0.13270736 11:0.16337627 12:-0.019189691 13:0.005260945 14:-0.020058665 15:0.41352168 16:-0.081034593 17:-0.1409456 18:-0.14966524 19:-0.074591801 20:-0.05074399 21:0.041477025 22:-0.011388139 23:-0.075593412 24:0.13275208 25:0.004215944 26:0.027749617 27:0.25948107 28:-0.27373803 29:-0.030865571 30:-0.00865699 31:-0.11365853 32:-0.006158899 33:-0.028918406 34:0.042974357 35:0.026342796 36:-0.081501909 37:-0.00118852 38:0.16610016 39:-0.25049597 40:0.051576868 41:-0.07715857 42:-0.064289197 43:-0.022170976 44:0.065626688 45:0.005570121 46:-0.023831049 47:0.025254779 48:0.1649016 49:-0.070445985 50:-0.002511489 51:0.035761565 52:-0.14369696 53:0.019631565 54:0.058724158 55:-0.044920363 56:0.030225214 57:0.11475236 58:-0.1874256 59:0.023166895 60:-0.17394371 61:-0.001197802 62:0.000796212 63:-0.1071768 64:0.008118838 65:0.024108198 66:0.057725787 67:0.055561543 68:0.12031711 69:0.17453383 70:-0.008940482 71:0.009024115 72:-0.000643297 73:0.004296422 74:0.06076438 75:0.15029386 76:-0.050508264 77:-0.004136338 78:0.27576456 79:-0.16185939 80:-0.018325744 81:-0.10320872 82:0.013842235 83:-0.29655456 84:-0.064750046 85:-0.064207539 86:-0.006065625 87:-0.21932688 88:-0.069137648 89:-0.012565949 90:0.21098427 91:0.016168354 
5 0 2.7008576516930782 1:-0.001952228 2:-0.83690137 3:-0.12057547 4:-0.21574549 5:-0.34039554 6:0.1723254 7:-0.046609405 8:-0.12113529 9:0.048894905 10:-0.076085389 11:0.11363669 12:-0.000913999 13:-0.028252028 14:-0.018283136 15:0.33011404 16:-0.093459308 17:-0.1631054 18:0.000610474 19:-0.036566153 20:-0.033201918 21:0.02846322 22:0.02992247 23:-0.017548824 24:0.13976914 25:0.000208599 26:0.001514011 27:0.34265879 28:-0.17115197 29:-0.16367367 30:0.024676023 31:-0.1336125 32:-0.054670747 33:-0.01772836 34:0.032895215 35:0.033296727 36:0.008020236 37:0.011948731 38:0.032417309 39:0.009050257 40:0.00680965 41:-0.16103703 42:-0.005367613 43:-0.051709987 44:-0.097092547 45:0.01215145 46:-0.012325126 47:0.025750354 48:-0.205916 49:-0.081280947 50:-0.0130584 51:-0.009789806 52:-0.021230923 53:-0.021281084 54:0.008723389 55:-0.018916301 56:0.000983625 57:0.1046167 58:-0.07240247 59:0.027803699 60:-0.082040265 61:0.19916385 62:0.012558986 63:-0.039002456 64:0.014309283 65:0.24953872 66:0.14743981 67:0.008647663 68:0.03130905 69:0.19881852 70:0.014816029 71:0.020920936 72:0.047040958 73:0.029242914 74:-0.087693192 75:0.09647157 76:0.0045781 77:-0.006503916 78:0.14162405 79:0.072378099 80:-0.028405314 81:-0.003811814 82:0.007899582 83:-0.21762089 84:0.022213301 85:-0.03484799 86:-0.007811815 87:-0.24699621 88:-0.10060305 89:-0.016389359 90:0.014936455 91:0.006641751 
5 0 5 1:-6.9923e-05 2:-0.55774564 3:-0.071289167 4:-0.1707468 5:-0.18393487 6:0.14645693 7:-0.03787189 8:-0.064196542 9:-0.024237923 10:-0.046135426 11:0.054523144 12:-0.036328867 13:-0.035630044 14:0.008324577 15:-0.18216205 16:-0.19373834 17:-0.22009005 18:0.095620386 19:-0.042514641 20:-0.023930581 21:0.024835672 22:0.029130446 23:-0.011433406 24:0.023957454 25:0.0057353 26:-0.017777849 27:0.35872495 28:0.10195757 29:-0.1661811 30:0.008082978 31:0.03040483 32:0.014996822 33:0.019590611 34:0.004084716 35:0.010138079 36:-0.015241622 37:0.020323869 38:-0.012853097 39:0.15336423 40:0.04122271 41:0.000669519 42:-0.021363219 43:-0.0247938 44:0.023391295 45:-0.00802208 46:-0.026286518 47:0.001835359 48:-0.29770189 49:-0.099694423 50:-0.085374922 51:0.026643997 52:-0.022085976 53:-0.048110206 54:0.007144506 55:0.002594828 56:-0.008382947 57:0.11053989 58:0.013026279 59:-0.003976717 60:-0.034703728 61:0.13533847 62:-0.003698264 63:-0.036262389 64:0.01041707 65:-0.00947638 66:0.061611827 67:0.000182826 68:0.082591228 69:0.060482461 70:-0.00532497 71:0.001430947 72:-0.00374481 73:0.099575348 74:-0.11286699 75:0.011997427 76:-0.048523128 77:-0.002605988 78:0.095837273 79:0.20954695 80:-0.008395202 81:-0.049591243 82:-0.000361301 83:-0.20770235 84:-0.027626047 85:-0.008280539 86:-0.011352762 87:-0.066229925 88:-0.058923833 89:-0.001623072 90:0.1162507 91:0.007901314 
5 0 5 1:0.006017524 2:-0.79759669 3:-0.40477064 4:-0.2514295 5:-0.14537427 6:-0.15754271 7:-0.1135105 8:-0.06101061 9:-0.071620986 10:-0.1137188 11:0.004774652 12:-0.058106605 13:-0.033585243 14:0.040631592 15:0.17056757 16:-0.067602098 17:-0.20235281 18:0.017963555 19:-0.071340859 20:-0.043666374 21:-0.024849702 22:-0.020904275 23:-0.047882665 24:0.029524477 25:0.00402647 26:0.01204569 27:0.38377169 28:-0.068903349 29:-0.073713988 30:-0.020127703 31:0.0394863 32:0.011603191 33:-0.023513131 34:-0.016417773 35:0.052214514 36:0.014205107 37:0.020761494 38:-0.11533169 39:-0.051415097 40:0.032361958 41:0.052757133 42:-0.04149051 43:-0.028305443 44:0.064686678 45:0.026984613 46:0.00095587 47:-0.014591591 48:-0.026067417 49:-0.041863475 50:-0.09553954 51:-0.006164711 52:-0.068892203 53:-0.024598278 54:0.039644338 55:0.015983786 56:-0.007797817 57:0.13262071 58:-0.12406122 59:-0.006607998 60:-0.069272667 61:0.019028734 62:0.003614475 63:-0.015661137 64:0.010433833 65:-0.097052634 66:0.003778689 67:0.004680525 68:0.10625004 69:0.043077487 70:-0.001877451 71:-0.008542003 72:0.078490011 73:-0.012786142 74:-0.062351089 75:0.016107572 76:-0.020933164 77:0.005300797 78:0.18136865 79:0.02482623 80:-0.002349299 81:-0.01815841 82:0.007393206 83:-0.15815592 84:0.017635612 85:-0.020670522 86:-0.015639354 87:-0.080691032 88:-0.044597 89:-0.001022179 90:0.0480447 91:0.004511843 
5 5 5 1:0.005843653 2:-0.19603352 3:-0.12643437 4:-0.091882557 5:0.046584014 6:0.013279077 7:-0.031635497 8:-0.023789622 9:-0.021817934 10:-0.056269988 11:0.025803993 12:-0.038335491 13:0.008304941 14:0.050796855 15:0.30725938 16:0.003256669 17:-0.20634526 18:0.14638224 19:0.04536026 20:0.028468868 21:-0.042061497 22:-0.017398484 23:-0.007071328 24:-0.009965412 25:0.000508909 26:0.02584132 27:0.31400663 28:-0.17254765 29:-0.1129202 30:0.097232096 31:0.067629896 32:-0.009452075 33:0.003808619 34:-0.039305352 35:0.022225603 36:0.054141317 37:0.011150918 38:-0.27018809 39:-0.16045098 40:-0.020021679 41:0.087685913 42:-0.081734009 43:0.004988504 44:0.049278725 45:0.020401927 46:0.008147534 47:-0.022527954 48:-0.20992062 49:-0.071627587 50:-0.097861849 51:-0.069541335 52:-0.009668223 53:0.043328427 54:0.015892455 55:-0.018133301 56:-0.01707942 57:-0.073379375 58:-0.13967483 59:0.029666141 60:-0.011033815 61:0.074733526 62:0.001078697 63:0.028655011 64:-0.003519786 65:-0.10913788 66:0.011469042 67:-0.005014712 68:0.12666909 69:0.00839125 70:0.030556932 71:-0.005342641 72:0.14306161 73:-0.044447217 74:-0.068918824 75:-0.018546585 76:0.063161545 77:0.007692304 78:0.052682087 79:-0.081883244 80:0.002731813 81:0.078594424 82:-0.002821394 83:-0.18003839 84:0.019464284 85:-0.065058835 86:-0.017199619 87:0.006693779 88:-0.071106449 89:0.003976274 90:-0.088500433 91:-0.003807718 
5 0.73685397723916068 5 1:0.003883681 2:-0.038830142 3:-0.11424879 4:0.04215043 5:0.064796589 6:0.2909593 7:-0.012880713 8:0.021821016 9:-0.019786995 10:-0.047666252 11:0.055923138 12:-0.013814334 13:-0.014034779 14:0.041582931 15:0.038342342 16:-0.095942654 17:-0.30882183 18:0.24747594 19:0.019065851 20:0.001105473 21:-0.00697147 22:-0.002367673 23:-0.003090258 24:-0.005986719 25:-0.006698747 26:-0.000929427 27:0.49722829 28:0.044656672 29:-0.28525585 30:0.030983409 31:0.15279801 32:-0.019759584 33:0.011143094 34:-0.000438554 35:0.00742635 36:0.000998717 37:0.030506872 38:-0.25877443 39:0.030468484 40:-0.042381756 41:0.10973196 42:-0.029758571 43:-0.012984924 44:0.073372319 45:0.008958898 46:-0.005098305 47:-0.023716867 48:-0.41447389 49:-0.068858333 50:-0.15115786 51:-0.009451534 52:0.022833979 53:0.002845325 54:-0.009793286 55:-0.005005142 56:-0.03406775 57:-0.017483244 58:-0.04138393 59:0.025349949 60:-0.022501005 61:0.16509886 62:-0.014146805 63:-0.010379963 64:0.003660458 65:-0.17631179 66:0.00488683 67:-0.017545763 68:0.13727306 69:-0.027613819 70:0.017193321 71:-0.012574072 72:0.048320029 73:0.011279574 74:-0.13546947 75:-0.01482022 76:0.007466946 77:0.000336553 78:0.045481704 79:0.061117768 80:0.023217177 81:-0.004545714 82:6.4776e-05 83:-0.21409449 84:0.018669434 85:-0.032341216 86:-0.020149769 87:0.016521661 88:-0.021421187 89:0.000305723 90:0.018101249 91:0.004136498 
1.2503740848357754 0 0 1:0.00446275 2:-1.1153127 3:-0.063934095 4:0.046214595 5:-0.071687169 6:0.68913662 7:-0.046340976 8:-0.004957498 9:0.07602036 10:-0.049516443 11:0.045676023 12:-0.038512331 13:-0.024196528 14:-0.018143781 15:0.33077362 16:-0.23445721 17:0.18555155 18:0.30615482 19:-0.028243612 20:0.024153924 21:0.064305075 22:0.051772814 23:0.006598219 24:0.002753583 25:-0.010244362 26:0.017928783 27:-0.067535825 28:-0.16900539 29:0.50033861 30:0.029285489 31:0.13020202 32:0.016172089 33:0.019005626 34:0.12840347 35:0.01681396 36:0.022104636 37:-0.032052658 38:0.14586625 39:-0.27086103 40:0.027287975 41:0.0360559 42:0.305282 43:-0.004096644 44:-0.001990925 45:-0.019058613 46:0.015619134 47:-0.011058149 48:-0.033360329 49:-0.065267414 50:0.084470809 51:0.17045181 52:0.096623339 53:-0.025723554 54:0.003581298 55:0.037893362 56:-0.053022914 57:0.071226157 58:-0.17848516 59:0.14582781 60:0.007430188 61:0.25401613 62:-0.004909876 63:0.016277762 64:0.007283849 65:0.070038483 66:-0.060369749 67:0.1025196 68:0.089072131 69:-0.026821747 70:0.012735302 71:0.000542693 72:-0.045217119 73:-0.047893211 74:0.21304064 75:-0.004056898 76:0.060096089 77:-0.028017661 78:0.14450181 79:-0.060908794 80:-0.035209633 81:0.019869998 82:-0.005717481 83:0.020602919 84:0.031516988 85:0.037813045 86:-0.019274693 87:-0.063775055 88:-0.072216555 89:0.003420076 90:0.010131845 91:-0.001468655 
5 5 0 1:0.000477456 2:-0.098889343 3:-0.14840956 4:-0.17156024 5:0.21327229 6:-0.077944681 7:-0.006970041 8:0.063882865 9:0.003482452 10:0.095113121 11:0.018814186 12:-0.018011495 13:-0.003669551 14:0.021159872 15:0.3610895 16:0.003382423 17:-0.13782214 18:0.10859289 19:0.044207353 20:0.036106974 21:-0.056759473 22:-0.065407902 23:0.087923586 24:-0.019376913 25:-0.002883822 26:0.020499201 27:0.21820182 28:-0.2161271 29:-0.026485894 30:0.14179397 31:0.075168416 32:-0.02815681 33:0.11621617 34:-0.065648712 35:-0.026720818 36:0.046510451 37:0.008021543 38:-0.38801521 39:-0.1141808 40:-0.009791598 41:0.17343011 42:-0.08080332 43:0.051998042 44:0.083352961 45:0.016217457 46:0.033470448 47:-0.019045398 48:-0.064406931 49:-0.09615621 50:-0.047433402 51:-0.11927883 52:0.065326624 53:0.047620695 54:-0.023715101 55:-0.022160398 56:0.000488557 57:-0.15059476 58:-0.13273163 59:0.026925489 60:0.20352483 61:0.012822165 62:-0.006796016 63:0.030820047 64:-0.004794118 65:-0.19114372 66:0.049345255 67:-0.011326599 68:0.16107774 69:0.003744225 70:0.022572879 71:-0.009526333 72:0.17702064 73:-0.07964994 74:-0.020925568 75:-0.049237981 76:0.033396579 77:0.011367545 78:-0.21988173 79:-0.060112301 80:-0.009392143 81:0.075575717 82:-0.015220914 83:-0.16095133 84:0.005412862 85:-0.036106519 86:-0.009490669 87:0.042247526 88:-0.062713906 89:0.002682496 90:-0.061417755 91:-0.004455354 
5 5 0 1:0.003793938 2:0.14931717 3:-0.14206746 4:-0.076578818 5:0.10093494 6:0.1494482 7:-0.050882034 8:0.000738675 9:-0.030300684 10:-0.031886503 11:0.057376415 12:-0.017899878 13:-0.015668582 14:0.051142998 15:0.21460579 16:-0.025341837 17:-0.18509211 18:0.17766856 19:-0.020934379 20:-0.008751022 21:0.003818454 22:-0.012603146 23:0.005558476 24:0.007061172 25:-0.007247837 26:0.014309156 27:0.33180702 28:-0.12312856 29:-0.12116443 30:0.010640057 31:0.045137618 32:0.004399959 33:0.011032636 34:-0.002743369 35:0.008351225 36:0.023220457 37:0.022236468 38:-0.35645822 39:-0.13414823 40:0.023529543 41:0.06562946 42:-0.016890479 43:-0.008901137 44:0.036355365 45:0.010802631 46:0.008474982 47:-0.025779635 48:-0.36230868 49:-0.034042284 50:-0.0640845 51:0.005949476 52:0.00210941 53:-0.0053087 54:0.007377986 55:0.009898697 56:-0.024804229 57:0.039819721 58:-0.096196815 59:-0.015102282 60:0.016508101 61:0.11093822 62:2.5542e-05 63:0.001269039 64:0.003161658 65:-0.09885066 66:-0.004191538 67:-0.010150492 68:0.14220054 69:0.026970675 70:-0.001016728 71:-0.007245766 72:0.0288039 73:-0.008203642 74:-0.089348502 75:0.005622859 76:0.029213188 77:0.000554656 78:0.013781304 79:-0.023262825 80:0.000485484 81:0.01790455 82:-0.002541672 83:-0.25492397 84:0.00014175 85:-0.013216822 86:-0.019885009 87:-0.029169098 88:-0.027854022 89:-0.000710895 90:-0.036008205 91:-0.002522505 
5 5 5 1:0.003676923 2:0.090274848 3:-0.17792059 4:-0.14388211 5:0.098309979 6:0.2318304 7:-0.051157825 8:-0.028656585 9:-0.0092441 10:-0.048893042 11:0.023164785 12:-0.021530339 13:-0.022308009 14:0.048784271 15:0.16944881 16:-0.052076127 17:-0.10766537 18:0.2501145 19:-0.023686742 20:-0.021647254 21:0.014988744 22:-0.00342449 23:-0.031147005 24:0.034724966 25:-0.00030679 26:0.012252514 27:0.18881687 28:-0.072645396 29:-0.051725622 30:0.004385089 31:0.064805277 32:-0.008493653 33:-0.007860173 34:0.030273359 35:0.013978449 36:0.006882915 37:0.008974175 38:-0.35785422 39:-0.07838542 40:0.017673299 41:0.063577108 42:0.052308407 43:-0.023471339 44:0.032806162 45:0.016086178 46:-0.00545347 47:-0.027171182 48:-0.44254634 49:-0.034486219 50:-0.040414266 51:0.071441948 52:-0.046870425 53:-0.002097289 54:0.031296019 55:0.007384843 56:-0.033847969 57:0.035927791 58:-0.071209781 59:-0.016573315 60:-0.045157064 61:0.12697861 62:0.011455627 63:-0.007032149 64:0.003483246 65:-0.092198759 66:0.007943382 67:0.01038101 68:0.12730727 69:0.080699526 70:0.001818794 71:-0.005275714 72:-0.066180952 73:-0.000538196 74:-0.026174432 75:0.052912001 76:-0.007109639 77:-0.007710465 78:0.12779306 79:-0.017306745 80:-0.01101825 81:-0.011223495 82:0.005568923 83:-0.21835317 84:0.001428813 85:-0.007584231 86:-0.015996503 87:-0.11827861 88:-0.028548537 89:-0.00897521 90:0.014924159 91:0.001555571 
5 5 0 1:0.005207228 2:0.13056625 3:-0.12462384 4:-0.13400197 5:0.031578727 6:0.19711672 7:-0.011378664 8:-0.020484116 9:-0.02370476 10:-0.022201212 11:0.11327095 12:-0.02422395 13:-0.018186478 14:0.059047624 15:0.22847359 16:-0.068075024 17:-0.013026396 18:0.19128938 19:-0.065121353 20:-0.036036801 21:0.012992871 22:0.000654006 23:0.025441095 24:0.003359367 25:0.000336049 26:0.015456288 27:0.007587465 28:-0.1159088 29:0.056600221 30:-0.021351872 31:0.057615563 32:-0.00162378 33:0.023862869 34:0.010885675 35:0.008143722 36:0.020062108 37:-0.003359953 38:-0.2895115 39:-0.1090498 40:0.022935566 41:0.027451431 42:-0.002072552 43:-0.016977435 44:0.051647186 45:0.005721851 46:0.006397529 47:-0.025472941 48:-0.41246787 49:-0.049787071 50:0.005705117 51:0.0185022 52:0.042157397 53:-0.051304761 54:0.00463346 55:0.007312661 56:-0.035508581 57:0.095053121 58:-0.077251844 59:-0.000214869 60:0.02027327 61:0.17051853 62:0.006095371 63:-0.007385525 64:0.010974403 65:-0.088733569 66:-0.001386616 67:0.033887234 68:0.13314752 69:0.023235817 70:0.001128577 71:-0.006999452 72:-0.003064337 73:-0.039006472 74:0.041460767 75:0.012224752 76:0.021599414 77:-0.001173581 78:-0.018667797 79:-0.020609729 80:-0.01023532 81:0.015361088 82:-0.005688253 83:-0.29484796 84:0.013063863 85:-0.002655288 86:-0.028635576 87:-0.040066957 88:-0.039266374 89:-0.002263488 90:-0.029140489 91:-0.002531712 
-0 0 5 1:-0.00045485 2:0.41756964 3:0.080163032 4:-0.012314406 5:-0.087278686 6:-0.001879842 7:-0.002445381 8:-0.014986489 9:-0.006765239 10:-0.011458981 11:-0.03441437 12:-0.004763516 13:-0.01244283 14:0.003253136 15:-0.13146398 16:0.021781107 17:-0.00486041 18:-0.041728314 19:-0.007348132 20:-0.014023841 21:-0.007613851 22:0.005497502 23:-0.015578409 24:-0.001438357 25:-0.005725006 26:-0.004676828 27:-0.090926439 28:0.055708494 29:0.015534513 30:-0.039183807 31:-0.013976338 32:0.002499443 33:-0.019688224 34:-0.003071813 35:-0.004949456 36:0.004401865 37:-0.000657703 38:0.066749796 39:0.08803267 40:0.001495243 41:-0.01081279 42:0.008199633 43:0.003294658 44:-0.007260418 45:-0.003230141 46:-2.0993e-05 47:0.006132466 48:-0.031893544 49:-0.007311066 50:0.010764967 51:0.004719739 52:-0.008028349 53:-0.001391337 54:0.007440142 55:0.008994997 56:0.001676567 57:-0.020040372 58:0.032561414 59:-0.002572399 60:-0.042727828 61:-0.020788157 62:-0.004383281 63:-0.001631587 64:0.000367743 65:-0.040673748 66:-0.005669457 67:-0.011484875 68:-0.016312266 69:-0.015092492 70:-0.005448339 71:0.001390032 72:-0.042083949 73:-0.010074685 74:0.019375436 75:-0.003066365 76:0.000991401 77:-0.000575652 78:0.025929635 79:0.042230275 80:0.00374738 81:-0.004812116 82:0.001463917 83:0.00292517 84:-0.020139495 85:-0.011508211 86:0.001948961 87:0.046338018 88:0.007197713 89:0.000994005 90:0.002093101 91:0.000128381 
-0 0 5 1:-0.003793114 2:-1.7105432 3:-0.06224462 4:0.56343651 5:-0.42959285 6:-0.10893602 7:0.022518042 8:-0.14419404 9:-0.059089236 10:-0.041124374 11:-0.15595387 12:0.063359603 13:-0.049681868 14:-0.032780655 15:-0.20205121 16:0.037633654 17:0.078936577 18:-0.24142653 19:-0.032147784 20:0.047717966 21:-0.033525772 22:-0.019322868 23:-0.050705209 24:0.00940311 25:0.014748857 26:-0.011945922 27:0.089713477 28:0.13608149 29:-0.36450261 30:-0.033230003 31:-0.10659368 32:0.006804785 33:0.007130119 34:-0.034744911 35:-0.049178071 36:0.000804505 37:-0.00538798 38:0.30730116 39:0.11493199 40:-0.062749386 41:-0.1591378 42:0.008654326 43:0.032879084 44:-0.072114989 45:-0.004408035 46:-0.024938898 47:0.026028128 48:0.38238183 49:0.11680739 50:-0.13430107 51:-0.024158129 52:-0.004579618 53:0.006450381 54:0.006128209 55:0.015794182 56:0.028608223 57:0.003514371 58:-0.080593362 59:-0.12887888 60:-0.075295612 61:-0.13033329 62:-0.015995696 63:-0.056349695 64:-0.001090579 65:0.12828423 66:-0.043238819 67:-0.089425214 68:-0.099959262 69:-0.063784011 70:-0.051828004 71:0.017272536 72:0.13603057 73:0.15561259 74:-0.013511792 75:-0.00573281 76:-0.061781459 77:0.006393041 78:0.19555819 79:0.091400526 80:0.19775514 81:-0.038373012 82:0.004050906 83:0.16767603 84:-0.043155931 85:0.040015079 86:0.017625056 87:-0.067913443 88:-0.030871036 89:-0.001754331 90:0.082695387 91:0.004010392 
-0 0 5 1:-0.000585749 2:0.39061514 3:0.20282692 4:0.05635995 5:-0.079614148 6:0.00155609 7:-0.014044319 8:-0.032062866 9:-0.015615045 10:-0.018298322 11:-0.046688605 12:0.004134996 13:-0.006160985 14:-0.00161531 15:-0.16366661 16:-0.038951159 17:-0.001881467 18:-0.058661964 19:-0.002736537 20:-0.003211248 21:-0.010933464 22:-0.005021585 23:-0.019223444 24:0.003512065 25:0.003284555 26:4.2922e-05 27:0.049557745 28:0.054862201 29:-0.086213499 30:-0.03148156 31:-0.019107848 32:0.002145231 33:-0.013524148 34:-0.005663372 35:-0.004119188 36:0.007145633 37:0.00500547 38:0.079136923 39:0.064592794 40:-0.029769605 41:-0.036186527 42:-0.003149048 43:-0.00618398 44:-0.015873834 45:-0.001172862 46:-0.005825547 47:0.008797929 48:0.014843275 49:-0.008918026 50:-0.040537704 51:-0.006134231 52:-0.009788572 53:-0.004518976 54:0.010429534 55:0.003385872 56:0.00402252 57:0.064172499 58:0.009704602 59:-0.022486364 60:-0.029046817 61:-0.030984933 62:-0.008037667 63:-0.003750271 64:0.001327308 65:0.052877102 66:-0.026175218 67:-0.026779935 68:-0.022631668 69:-0.018289067 70:-0.010389373 71:0.003854478 72:0.001166436 73:0.007786832 74:-0.00816743 75:0.011210732 76:0.002249361 77:0.000172534 78:0.018108524 79:0.035407323 80:0.058419354 81:-0.004342188 82:0.002491896 83:0.03624472 84:0.020967752 85:0.003206675 86:0.004136554 87:-0.017124828 88:0.034606744 89:-0.000499775 90:-0.047331002 91:0.000551864 
-0 0 5 1:-0.000184421 2:0.45457262 3:0.097244821 4:0.009199847 5:-0.081237465 6:0.014681299 7:-0.002155809 8:-0.030341793 9:-0.009719432 10:-0.017310143 11:-0.039496817 12:0.003340834 13:-0.007098067 14:-0.000358949 15:-0.23990735 16:0.034955069 17:-0.014948699 18:-0.028761256 19:0.006473329 20:0.002273846 21:-0.008788077 22:-0.012031922 23:-0.012598222 24:0.011662203 25:-0.005877714 26:-0.002668067 27:-0.06941063 28:0.054120012 29:-0.028949261 30:-0.020131761 31:-0.014562543 32:0.003858283 33:-0.005322166 34:-0.011532914 35:0.00486788 36:0.004236344 37:0.003020636 38:0.056059342 39:0.049396709 40:-0.032283857 41:-0.029229835 42:-0.013644242 43:0.002612919 44:-0.019145306 45:0.001851027 46:0.001525377 47:0.005073458 48:-0.034930367 49:-0.017632972 50:-0.020140965 51:-0.008981594 52:-0.005720062 53:-0.002683577 54:0.014351858 55:0.002461923 56:0.002568582 57:0.032157876 58:-0.000674794 59:-0.012694626 60:-0.018190665 61:-0.038277622 62:-0.007474109 63:-0.001736746 64:-0.000343328 65:0.019957121 66:-0.033975963 67:-0.007749595 68:-0.023763297 69:-0.016730897 70:-0.001194282 71:0.001393312 72:0.040555522 73:0.023435256 74:0.01918564 75:0.003140483 76:0.010871296 77:0.000375882 78:0.006138002 79:0.032557655 80:0.027756345 81:-0.000765628 82:0.00073819 83:-0.003405054 84:0.020889502 85:-0.005068844 86:0.00419578 87:-0.005554188 88:0.01734109 89:-0.000593973 90:-0.034138668 91:-0.000764584 
-0 5 0 1:-0.00076587 2:0.45941457 3:-0.056434546 4:0.019482184 5:-0.067848183 6:-0.057602342 7:0.027180512 8:-0.001806565 9:0.003500327 10:-0.00366744 11:-0.024517145 12:-0.010842768 13:-0.004220391 14:-0.004392371 15:0.18614727 16:0.004740063 17:0.006006241 18:-0.0613744 19:0.005661489 20:0.002740257 21:0.001911672 22:-0.014682764 23:0.001167112 24:0.014860827 25:0.005079846 26:0.004986729 27:-0.075994208 28:-0.038919602 29:-0.035266474 30:-0.037751574 31:-0.040834066 32:-0.010392096 33:0.006989209 34:-0.005871539 35:0.014602099 36:0.015257468 37:0.002251959 38:-0.007299964 39:-0.063986659 40:-0.037319805 41:-0.014341668 42:-0.010379183 43:-0.00752369 44:-0.007915723 45:0.002870303 46:0.012275659 47:0.004966065 48:0.043143079 49:0.00166798 50:0.006673196 51:0.012464638 52:-0.025046291 53:-0.008551779 54:0.017152777 55:0.000195839 56:0.006394383 57:0.024262747 58:-0.016377805 59:0.001074455 60:-0.003131768 61:-0.033927429 62:-0.001340224 63:0.00109372 64:-0.000317512 65:0.004070329 66:-0.017536085 67:0.025110655 68:0.001563603 69:0.023615809 70:-0.003976842 71:0.000746733 72:0.026798053 73:-0.001599157 74:0.018357892 75:0.018803062 76:-0.003432448 77:0.000507878 78:-0.041630365 79:-0.006852832 80:0.013042802 81:0.007313994 82:0.0006903 83:-0.025869412 84:0.021098813 85:0.018456642 86:0.002231395 87:-0.026219055 88:-0.003245691 89:-0.002046418 90:-0.061947443 91:-0.000559901 
-0 5 0 1:-0.000693807 2:0.57637483 3:-0.045366369 4:0.01777178 5:-0.029492155 6:-0.007612986 7:-0.003696245 8:-0.016365455 9:0.008201076 10:0.011379857 11:-0.018217508 12:0.004520226 13:-0.005487511 14:-0.001947603 15:0.039904233 16:0.015024884 17:0.005560644 18:-0.032691099 19:0.001038372 20:1.5881e-05 21:0.008039463 22:0.013629436 23:0.001069835 24:0.007278572 25:0.000352853 26:0.003640291 27:-0.13896288 28:-0.02883891 29:-0.013242396 30:-0.022457896 31:-0.018869689 32:0.008647393 33:0.010283573 34:-0.001213179 35:0.008021298 36:0.002470789 37:0.000466111 38:0.01350475 39:-0.065256596 40:0.006082413 41:-0.010200342 42:0.01981253 43:0.00703358 44:-0.009582212 45:0.001051885 46:0.004549528 47:0.00384604 48:0.005008027 49:0.003780093 50:0.007306444 51:0.021401703 52:0.000115893 53:0.006138052 54:0.016312348 55:0.003007127 56:0.003416157 57:-0.031173706 58:-0.01940945 59:0.003881122 60:-0.005930132 61:-0.017276492 62:0.007073335 63:-0.003297823 64:-0.000164068 65:-0.048796188 66:-0.012418583 67:0.017657174 68:-0.021593062 69:0.002449372 70:0.003589632 71:0.001865663 72:-0.070190802 73:-0.007896901 74:-0.002847505 75:0.003633365 76:-0.012181162 77:-0.000722899 78:-0.082701743 79:-0.014571069 80:0.013654653 81:-0.017842991 82:-0.000208828 83:0.01325589 84:0.037794501 85:-0.004691882 86:0.002198446 87:-0.00678957 88:0.002331607 89:-0.00223263 90:-0.011113549 91:0.000502446 
-0 5 0 1:-0.000531902 2:0.39818856 3:-0.087983318 4:0.05488731 5:-0.076896973 6:-0.033472981 7:-0.019871214 8:-0.03087778 9:0.008273282 10:0.007271231 11:-0.033718664 12:0.003395488 13:-0.002073206 14:0.001832818 15:0.037202246 16:-0.000448374 17:0.027097972 18:-0.042133678 19:0.001839184 20:0.004259635 21:0.010938358 22:0.004337955 23:-0.003585282 24:0.020216323 25:0.009997612 26:0.00049576 27:-0.15240681 28:-0.030373974 29:0.000602587 30:-0.019523486 31:-0.014158095 32:0.017028499 33:-0.002601444 34:-0.008433797 35:0.015229492 36:0.00905463 37:-0.001421865 38:0.071672089 39:-0.008707423 40:-0.015537858 41:-0.045366645 42:0.024137277 43:0.006829103 44:-0.023744419 45:-0.003400504 46:0.009895462 47:0.006192303 48:0.030801037 49:0.01462165 50:-0.013011922 51:0.004991889 52:0.007212413 53:0.004902219 54:0.018277068 55:0.004239183 56:0.002079436 57:0.011080989 58:-0.026819678 59:-0.008576272 60:-0.01313066 61:-0.039467558 62:-0.002960637 63:-0.001745246 64:-0.00116201 65:0.016576918 66:-0.011265072 67:0.034117311 68:-0.029216645 69:0.020772541 70:0.001093695 71:0.00261999 72:-0.034778487 73:0.022152055 74:0.023734543 75:0.017938107 76:0.003847631 77:-0.001246281 78:-0.068289757 79:0.017537586 80:0.026300507 81:-0.004081903 82:-0.002177567 83:-0.002109259 84:0.039871648 85:0.0042412 86:0.002961759 87:-0.041135214 88:0.010103349 89:-0.003233344 90:-0.031842422 91:-0.001513198 
-5 0 5 1:-0.004514112 2:-2.1199346 3:-0.25866958 4:0.02307749 5:-0.41476515 6:-0.560256 7:-0.069577828 8:-0.11093177 9:-0.020199789 10:-0.04465992 11:-0.18058014 12:0.052714884 13:-0.046829194 14:-0.031060582 15:-0.13399626 16:0.30982199 17:0.061288781 18:-0.33288413 19:-0.10519716 20:0.021462418 21:0.040446531 22:0.007242983 23:-0.016254665 24:0.085055329 25:0.048653822 26:-0.000676669 27:0.032644346 28:0.087678619 29:-0.003748436 30:-0.13980845 31:-0.074689545 32:0.012108107 33:0.06008748 34:-0.002782257 35:0.063143142 36:0.063263431 37:0.000422996 38:0.2009421 39:-0.12282399 40:-0.018862637 41:-0.12665951 42:0.022973429 43:-0.034707196 44:0.003359082 45:0.012905233 46:0.037461329 47:0.029626749 48:0.54821193 49:0.033837002 50:-0.090775162 51:0.07054083 52:-0.088872373 53:0.005997043 54:0.13105542 55:0.032542832 56:0.042006645 57:0.2580103 58:-0.14561188 59:-0.012861921 60:-0.01008497 61:-0.21346529 62:0.095334157 63:0.005675325 64:0.002489426 65:0.11821904 66:-0.056779768 67:0.023490159 68:-0.043660808 69:0.11719769 70:0.022141198 71:0.008437247 72:0.064787194 73:0.094813474 74:0.052135631 75:0.057965651 76:-0.006095627 77:0.002247777 78:0.12463003 79:0.12277473 80:0.15594982 81:-0.030635502 82:-0.002434818 83:0.090073928 84:0.28414047 85:0.006788068 86:0.0125545 87:-0.22981058 88:0.028231729 89:-0.02011314 90:0.002953665 91:-0.005344248 
-0 3.7400335064821304 0 1:-0.000356106 2:0.48155034 3:-0.084958591 4:0.053119265 5:-0.053567022 6:-0.027719358 7:0.00587266 8:-0.008437744 9:0.004076275 10:0.036513533 11:-0.033138752 12:-0.002874509 13:-0.001699336 14:0.000446867 15:0.092215225 16:-0.00467839 17:0.010978874 18:-0.031712383 19:0.009654486 20:0.014616154 21:0.005206112 22:0.010153931 23:0.003243869 24:0.007719417 25:0.003582446 26:0.0034328 27:-0.07987655 28:-0.041885089 29:-0.03391844 30:-0.004031434 31:-0.020174341 32:0.010695426 33:0.021714685 34:-0.001646604 35:0.008454502 36:0.00719429 37:0.001051794 38:0.037486915 39:-0.048274692 40:-0.03319088 41:-0.010959683 42:0.014174903 43:0.026159219 44:-0.012598097 45:-0.001707138 46:0.015156845 47:0.003329327 48:0.040995456 49:0.00797168 50:0.005563606 51:0.015283012 52:0.010525138 53:0.013674274 54:0.020748232 55:0.006989449 56:0.0030534 57:-0.007549029 58:-0.021235282 59:0.002077633 60:0.011377431 61:-0.031779315 62:-0.001114359 63:0.002203332 64:-0.002936094 65:-0.009208412 66:-0.015628573 67:0.008208968 68:-0.02719439 69:0.002885358 70:0.00547677 71:-3.1948e-05 72:-0.023278683 73:-0.001630838 74:-0.002481195 75:0.006476491 76:0.003684675 77:-0.001329751 78:-0.097362839 79:-0.002767153 80:0.025375884 81:-0.004497486 82:-0.004152295 83:-0.011807058 84:0.033521079 85:-0.001949952 86:0.002579918 87:-0.029024789 88:-0.000878128 89:-0.002038971 90:-0.046183284 91:-0.001209982 
-0 0 5 1:-0.000205108 2:0.50776959 3:-0.007554457 4:-0.017759953 5:0.017627658 6:-0.045599975 7:0.011447808 8:-0.01162357 9:0.035405718 10:0.003980087 11:-0.036823932 12:0.014032045 13:-0.006797612 14:0.002552838 15:-0.011945426 16:0.015012792 17:0.007140082 18:-0.028893713 19:-0.002511165 20:0.006529041 21:0.023753045 22:0.012758562 23:-0.007437118 24:0.014525606 25:-0.007977569 26:0.0014367 27:-0.071712554 28:0.028757285 29:-0.008563896 30:0.014419141 31:-0.011253188 32:0.004559121 33:0.017335055 34:-0.004072856 35:0.014820135 36:0.000183856 37:0.000843719 38:-0.057065319 39:-0.047724146 40:-0.001973221 41:0.012080302 42:0.02665782 43:0.018163767 44:-0.008291529 45:0.003601938 46:-0.002077697 47:-0.000456972 48:0.035246234 49:0.03440129 50:-0.003173512 51:0.028488731 52:-0.001874568 53:0.009326871 54:0.021931231 55:-0.0003418 56:0.00333911 57:-0.057168916 58:-0.019183904 59:0.004236965 60:0.008904924 61:-0.038352404 62:0.018437855 63:-0.013134157 64:-0.002754186 65:-0.051527835 66:-0.01747177 67:-0.005149275 68:-0.010855322 69:0.0198284 70:-0.004371762 71:0.000124482 72:-0.05577644 73:0.001488877 74:0.002452344 75:0.047989152 76:-0.016990326 77:-0.002888993 78:-0.052209582 79:0.006321328 80:0.012897165 81:-0.033763982 82:-0.001712366 83:0.01127727 84:0.058423497 85:-0.013091378 86:0.002424781 87:-0.068476565 88:-0.014573725 89:-0.003675089 90:0.026669897 91:0.002131527 
-0 0 5 1:-0.001036567 2:0.16482815 3:0.21120174 4:0.030338854 5:-0.082086988 6:-0.059504788 7:0.039769109 8:-0.027889449 9:0.014305331 10:-0.000506103 11:-0.017434724 12:0.021269023 13:-0.011548638 14:-0.011207855 15:-0.10613824 16:-0.04971163 17:0.040063951 18:-0.13047874 19:-0.005820898 20:0.028088745 21:-0.013334981 22:-0.015867596 23:-0.011666202 24:-0.00858802 25:0.002696829 26:-0.003941562 27:-0.002756108 28:0.035101559 29:-0.084772252 30:-0.052042533 31:-0.045447264 32:-0.030096402 33:-0.000424816 34:0.001146653 35:-0.029230127 36:-0.016581163 37:0.002163341 38:0.059503414 39:-0.043623522 40:-0.032750148 41:-0.066571087 42:0.017334703 43:0.033013005 44:-0.005991315 45:0.00426595 46:-0.00246665 47:0.01300007 48:0.12687315 49:0.073123939 50:-0.022523111 51:0.016006062 52:-0.009798541 53:0.021601155 54:0.009591335 55:-0.000990798 56:0.01077287 57:-0.072905354 58:0.025552506 59:-0.012827683 60:-0.076229274 61:-0.034464173 62:-0.034835599 63:-0.014725843 64:-0.001061768 65:-0.017675087 66:-0.062072862 67:-0.047699247 68:-0.066270784 69:-0.019790459 70:0.001408427 71:0.003019741 72:0.0377618 73:-0.003097125 74:-0.001556342 75:0.056462716 76:-0.026274299 77:0.000661257 78:0.011076316 79:-0.011932824 80:0.069040477 81:-0.017794022 82:0.005549193 83:0.036764849 84:0.04227148 85:-0.008590898 86:0.004034146 87:0.001784497 88:0.015651032 89:-0.003134926 90:0.01640767 91:0.001549115 
-0 0 5 1:-0.000688488 2:0.29789203 3:0.053427763 4:0.048246089 5:-0.083089098 6:-0.002487815 7:0.023654519 8:-0.038029406 9:0.012675888 10:0.005286651 11:-0.002119113 12:0.008480334 13:0.001922401 14:0.004496526 15:-0.062649429 16:-0.011935947 17:0.019818749 18:-0.084592246 19:-0.003177115 20:0.008994464 21:-0.005273186 22:-0.008886483 23:-0.005560041 24:0.006879675 25:0.000309048 26:-0.00547322 27:-0.047009435 28:0.042970758 29:-0.09310057 30:-0.020373464 31:-0.042706903 32:-0.016487792 33:-0.002921803 34:0.00535036 35:-0.019529853 36:-0.016644865 37:0.000914477 38:0.057958938 39:-0.021290982 40:-0.00686528 41:-0.035615083 42:0.021030979 43:0.012200047 44:-0.007700121 45:0.003710048 46:0.000114573 47:0.004978894 48:0.029474316 49:0.065467529 50:-0.010689419 51:0.01935041 52:-0.004363261 53:0.017948529 54:0.007948927 55:-0.010890855 56:0.005481426 57:-0.03901903 58:0.011713186 59:-0.028297041 60:-0.059392571 61:-0.005468282 62:-0.019892944 63:-0.011624728 64:-0.001924077 65:-0.002503255 66:-0.011065228 67:-0.028889902 68:-0.017408852 69:-0.008100125 70:-0.004979926 71:0.00325262 72:0.032509569 73:0.004753646 74:-0.002196504 75:0.033907048 76:-0.045852933 77:4.1832e-05 78:-0.032715041 79:0.03124259 80:0.043578628 81:-0.020229878 82:0.002907436 83:-0.08187782 84:0.006863784 85:0.012964216 86:0.000426158 87:0.021897823 88:0.00649836 89:-0.001857517 90:0.021050772 91:0.002308903 
-5 0 0 1:-0.000348584 2:0.42437974 3:-0.045936152 4:0.047137085 5:-0.04612007 6:-0.046235286 7:0.045455281 8:-0.020215595 9:0.000241611 10:0.026106613 11:-0.035031684 12:0.000862929 13:-0.002862759 14:0.000952694 15:0.10677546 16:0.054907288 17:0.05825644 18:-0.050946031 19:-0.003701496 20:0.002132089 21:0.010613984 22:-0.000671212 23:0.000644544 24:0.011108438 25:-0.002065152 26:0.004570622 27:-0.005953329 28:0.010882258 29:-0.023208357 30:-0.007141291 31:-0.014939775 32:-0.011374612 33:0.012176937 34:0.005620722 35:0.028286545 36:0.010906016 37:0.000874415 38:-0.007071035 39:-0.072470412 40:-0.026469585 41:-0.017079353 42:0.006967486 43:0.032374837 44:-0.007586783 45:0.003787707 46:0.012616163 47:0.003283435 48:-0.004632896 49:-0.000984485 50:-0.009420275 51:0.012439738 52:0.011465041 53:0.000687342 54:0.020233721 55:0.010571481 56:0.004105085 57:-0.083934434 58:-0.039324749 59:0.00280812 60:0.007919013 61:-0.019990727 62:0.021813104 63:0.000316724 64:-0.002945398 65:-0.001955498 66:-0.010624791 67:0.006807945 68:-0.018984299 69:0.022780841 70:0.004351182 71:0.001109483 72:-0.006252997 73:-0.002832714 74:-0.00199126 75:0.034734465 76:-0.000433365 77:0.000120249 78:-0.045876857 79:-0.020395134 80:0.0168673 81:-0.018795474 82:-0.003674951 83:0.014086885 84:0.031926986 85:-0.031690333 86:0.002271985 87:-0.051360101 88:-0.023411358 89:-0.004265269 90:0.025568824 91:-0.000661093 
-0 5 0 1:0.002435429 2:0.49216056 3:-0.035581987 4:0.003920095 5:-0.01424304 6:-0.068482503 7:0.019778531 8:-0.017729994 9:0.009290542 10:0.024668025 11:-0.031780504 12:0.012058356 13:-0.007012883 14:-0.004800794 15:0.086540319 16:0.026065335 17:0.031605564 18:-0.039573949 19:-0.01691561 20:0.013649701 21:0.007253391 22:-0.000897899 23:0.000749126 24:0.005513148 25:0.005187668 26:0.010722931 27:-0.057774112 28:0.019928165 29:-0.005477616 30:0.018194094 31:-0.020935403 32:-0.007960211 33:0.02244366 34:-0.002982055 35:0.027555576 36:0.006584354 37:0.00438978 38:-0.032912657 39:-0.048302464 40:0.012829685 41:-0.01771393 42:-0.004238634 43:0.023679895 44:-0.004594044 45:-0.009137023 46:0.008282731 47:0.008504607 48:0.048199434 49:0.025134023 50:-0.022516342 51:-0.004918678 52:-0.005616339 53:0.005141865 54:0.017445209 55:0.0032184 56:0.005644474 57:-0.05351238 58:-0.035371471 59:-0.018823655 60:0.022980681 61:-0.030027052 62:0.029603781 63:-0.002571853 64:-0.003017047 65:0.016991856 66:-0.02648812 67:0.00632729 68:-0.023358356 69:0.011043211 70:0.003430689 71:-0.000858436 72:0.030099221 73:0.007375481 74:-0.011103789 75:0.042051613 76:-0.007854432 77:-0.003490684 78:-0.071414195 79:-0.007236131 80:0.028856695 81:-0.009010496 82:-0.001708424 83:0.029610753 84:0.051074699 85:-0.012706195 86:0.003238748 87:-0.077257812 88:-0.006122106 89:-0.001463216 90:0.009840424 91:0.000161261 
-5 0 0 1:-0.000753888 2:0.51673561 3:0.030705325 4:-0.001446651 5:0.028902696 6:-0.011142804 7:0.017142577 8:-0.013177232 9:0.008534603 10:-0.004952438 11:-0.027210005 12:-0.000892901 13:0.003010927 14:-0.001441549 15:0.1351085 16:0.031862035 17:0.029076658 18:-0.020319454 19:0.006002439 20:0.007956589 21:0.005216947 22:0.000305028 23:-0.012291263 24:-0.002134688 25:0.004318956 26:0.008802491 27:-0.008817489 28:-0.013920943 29:-0.031111475 30:-0.02165534 31:-0.016076978 32:-0.001983677 33:0.003311718 34:-0.004177287 35:0.009775084 36:-0.003847341 37:0.004200817 38:-0.071118504 39:-0.096761271 40:-0.026880721 41:-0.00489304 42:-0.001959213 43:0.007448591 44:-0.025236748 45:0.002944667 46:0.000299243 47:0.006233785 48:-0.038259111 49:0.007593537 50:-0.004860363 51:0.013243602 52:0.004473933 53:-0.002578325 54:0.018618211 55:0.010738425 56:0.003187322 57:-0.025836481 58:-0.02751093 59:0.001432575 60:-0.003883384 61:-0.020862376 62:0.00553566 63:0.009384573 64:-0.0012329 65:-0.039044179 66:-0.027214849 67:0.00015784 68:-0.042059451 69:0.015142901 70:0.01142902 71:0.002484047 72:-0.039082117 73:-0.019233072 74:-0.018400809 75:0.034931771 76:0.006191691 77:-0.000574353 78:-0.034512028 79:-0.045608319 80:0.013972004 81:-0.00151069 82:0.000997796 83:0.050476968 84:0.044529092 85:-0.005650007 86:0.003975206 87:-0.052505851 88:-0.007522052 89:-0.001590425 90:-0.040797483 91:-0.000769491 
-0 0 5 1:-0.000932604 2:0.30820107 3:-0.086152948 4:0.00359034 5:-0.015729662 6:-0.097142018 7:0.042636871 8:0.000898839 9:0.012414578 10:0.001702688 11:-0.050587509 12:0.002727955 13:-2.5298e-05 14:-0.006097828 15:0.066756815 16:-0.025946055 17:0.027713276 18:-0.062174737 19:0.001033329 20:0.024493616 21:0.006325802 22:-0.000118429 23:-0.016572746 24:0.008962513 25:0.002233337 26:0.001799 27:-0.086376823 28:0.018046981 29:0.004923827 30:0.018663565 31:-0.02046266 32:0.010248157 33:0.011697365 34:-0.006895452 35:0.021216253 36:0.002590757 37:-0.000162875 38:0.080275536 39:-0.046541285 40:-0.042160988 41:0.015801236 42:0.003307037 43:0.025924528 44:-0.022798071 45:0.004188278 46:0.005413345 47:0.002348399 48:0.029815819 49:0.032406781 50:-0.004116127 51:-0.003444393 52:-0.018968699 53:0.004545272 54:0.032176003 55:0.022982458 56:0.008403568 57:0.04546975 58:-0.01051395 59:-0.004281206 60:-0.013480745 61:-0.061873667 62:0.021405254 63:0.011810241 64:-0.00329594 65:-0.046117764 66:-0.025076838 67:0.00725755 68:-0.044186085 69:0.026613882 70:-0.000542228 71:0.00036611 72:-0.040066194 73:0.008251844 74:0.004669053 75:0.038723636 76:-0.001156315 77:0.00054452 78:-0.019667406 79:-0.007096597 80:0.009674868 81:-0.007317396 82:5.92e-05 83:0.075712889 84:0.04300886 85:-0.004155129 86:0.005415897 87:-0.052403711 88:-0.006503062 89:-0.004495434 90:-0.049426928 91:-0.000220677 
-0 5 0 1:-0.000833021 2:0.55665916 3:-0.0200599 4:0.018508261 5:-0.063300051 6:-0.047328729 7:0.01897838 8:-0.004731745 9:0.021432986 10:0.008978337 11:-0.025037194 12:0.009583731 13:-0.008723125 14:-0.002660233 15:0.06646546 16:0.033956185 17:0.008106817 18:-0.050369743 19:0.005275063 20:0.018221023 21:0.007904056 22:0.018107096 23:9.1594e-05 24:-0.003625363 25:0.001749801 26:0.004603191 27:-0.060257774 28:0.001113218 29:-0.015892005 30:-0.002474366 31:-0.017672494 32:0.011943944 33:0.011127171 34:0.000454063 35:-0.000200255 36:-0.000517649 37:0.001528183 38:0.053478867 39:-0.060360488 40:-0.002624046 41:-0.027757576 42:0.017319795 43:0.015360832 44:-0.010383113 45:-0.006309958 46:0.000702647 47:0.005412173 48:0.001408607 49:0.003173968 50:0.008286668 51:0.022705993 52:0.006357081 53:0.002205296 54:0.010567972 55:0.010314831 56:0.004584768 57:-0.044548098 58:-0.026333731 59:0.000535657 60:-0.007727776 61:-0.026397735 62:0.011031801 63:-0.000560772 64:-0.00145744 65:-0.10177106 66:-0.026362639 67:0.003762465 68:-0.027701035 69:0.00097215 70:0.007606101 71:0.002316976 72:-0.031862762 73:-0.022359561 74:0.001597764 75:0.013288596 76:-0.002874553 77:-0.001010369 78:-0.063582629 79:-0.020146498 80:0.018873667 81:-0.016459797 82:-0.00026067 83:-0.018193124 84:0.051359285 85:-0.004894229 86:0.003070397 87:0.000301139 88:-0.010676726 89:-0.001222076 90:-0.002987309 91:0.000596889 
-0 5 0 1:0.000224751 2:0.46215272 3:-0.03979826 4:0.089524545 5:-0.10772236 6:-0.041762222 7:-0.000285574 8:-0.005462132 9:-0.00055653 10:0.014001145 11:-0.020421483 12:-0.004817418 13:-0.005632188 14:0.003091029 15:0.14179105 16:0.020035002 17:0.020302827 18:-0.047456019 19:-0.006693029 20:0.012641032 21:-0.00317725 22:-0.002703101 23:0.008678797 24:0.007760641 25:0.002558881 26:0.010109578 27:-0.13780458 28:-0.033828948 29:0.020306321 30:-0.003619009 31:-0.021256449 32:-0.00825526 33:0.019876344 34:-0.00732118 35:0.012224259 36:0.008646864 37:-0.001048746 38:0.036229059 39:-0.061725728 40:0.014572978 41:-0.019429108 42:0.008058979 43:0.012448288 44:-0.004442241 45:0.006927546 46:0.012518177 47:0.005570184 48:0.0349999 49:0.006045078 50:0.025994316 51:0.010854909 52:0.011538494 53:0.01569679 54:0.007468292 55:0.011761487 56:0.003795882 57:-0.005831473 58:-0.025534572 59:0.008016787 60:-0.000525996 61:-0.020910509 62:0.004345396 63:0.003784812 64:0.000211054 65:-0.053084448 66:-0.025048122 67:0.040546332 68:-0.017774515 69:0.025649199 70:0.006215158 71:0.003648871 72:-0.015245017 73:-0.011517564 74:0.014853545 75:0.0059053 76:0.009334738 77:0.00052298 78:-0.062744126 79:-0.014269416 80:0.017337741 81:-0.007357146 82:-0.001672489 83:-0.010215293 84:0.023059934 85:0.000765763 86:0.001922358 87:-0.003909121 88:-0.016251013 89:-0.003079697 90:-0.025191436 91:-0.001284832 
-4.6956696714985764 0 5 1:-0.005545128 2:-2.1104929 3:-0.49675888 4:0.29179803 5:-0.58244461 6:-0.30136398 7:-0.026657972 8:-0.1761376 9:0.12859668 10:-0.021293197 11:-0.206662 12:0.14914216 13:0.0131394 14:-0.050009534 15:0.32033601 16:0.31986755 17:0.17423609 18:-0.34506738 19:0.016251151 20:0.06414976 21:-0.000885716 22:0.008120399 23:-0.071052842 24:0.024694273 25:0.10331724 26:0.02610483 27:0.13279264 28:-0.046926223 29:-0.15978153 30:0.011032751 31:-0.1354759 32:0.05069856 33:0.037713055 34:-0.060721699 35:0.046330683 36:0.012751338 37:-0.001131321 38:0.3349928 39:-0.3403827 40:-0.037630111 41:-0.15749194 42:0.08209037 43:0.10531258 44:-0.10515249 45:-0.11262461 46:0.064336367 47:0.036944766 48:0.35645318 49:-0.038947947 50:0.011434395 51:-0.011285008 52:-0.015865739 53:0.02616707 54:0.13236302 55:-0.013213458 56:0.03540187 57:0.031494733 58:-0.18622227 59:-0.1294513 60:-0.096862614 61:-0.20483252 62:0.053666908 63:0.017893359 64:-0.009396557 65:0.153448 66:-0.11137061 67:0.010031765 68:-0.19787483 69:-0.006054035 70:0.070867367 71:0.015894413 72:0.15435556 73:-0.060612705 74:-0.062032137 75:0.12645948 76:-0.010269647 77:0.005247183 78:0.26195875 79:-0.094101742 80:0.27922055 81:0.021795975 82:0.000245713 83:0.27847043 84:0.28898394 85:0.088184431 86:0.025343988 87:-0.20534874 88:0.039315838 89:-0.014935814 90:0.005074164 91:-0.007836543 
-5 0 0 1:0.001055452 2:0.43221831 3:-0.042794522 4:0.007536416 5:-0.084173068 6:0.018592307 7:0.029158844 8:0.042563852 9:0.002631064 10:0.009201718 11:-0.0233813 12:0.01011436 13:0.011174111 14:0.010988574 15:0.10585226 16:-0.00740035 17:0.046255194 18:-0.029798796 19:0.008773288 20:0.015312409 21:-0.015672687 22:-0.026925175 23:0.001430012 24:-0.013846356 25:-0.012170635 26:0.001007541 27:-0.085347235 28:-0.027320771 29:0.058515862 30:-0.0319589 31:-0.01733157 32:-0.026524024 33:0.022065204 34:-0.017076647 35:-0.022576697 36:0.013704865 37:-0.009137911 38:-0.032403473 39:-0.030939437 40:-0.026847206 41:-0.024236096 42:-0.021106057 43:0.011108726 44:0.015349849 45:0.020479204 46:1.9796e-05 47:0.00204855 48:-0.000490146 49:-0.012120559 50:0.018961133 51:0.005654273 52:-0.047854248 53:0.01749783 54:-0.028046744 55:-0.002388857 56:-0.002927811 57:-0.025537558 58:0.005799841 59:0.010615363 60:-0.034168575 61:-0.025504055 62:-0.021631435 63:0.020936018 64:-0.001118069 65:-0.10004406 66:-0.003637669 67:-0.015865985 68:-0.023105953 69:0.01394874 70:0.01270908 71:-0.00564801 72:0.068226703 73:-0.007348822 74:0.017587611 75:0.001684292 76:0.036246896 77:0.001301407 78:-0.019611642 79:0.002662492 80:0.00358628 81:0.010182933 82:0.003230039 83:-0.035942778 84:0.007175884 85:0.022829955 86:0.000217016 87:0.074570663 88:0.005405479 89:0.001789779 90:-0.074826963 91:-0.005160902 
-0 2.3618520511129599 0 1:-0.000751371 2:0.51558769 3:-0.073323585 4:-0.035799146 5:-0.10548693 6:-0.030921662 7:-0.009030749 8:-0.022194073 9:-0.004624564 10:-0.016801139 11:0.015563363 12:0.029300971 13:-0.009057733 14:-0.000696452 15:-0.001580109 16:-0.060804483 17:-0.010682936 18:-0.059887562 19:0.002472616 20:-0.010136 21:0.01187967 22:0.002014218 23:-0.005229845 24:0.017302241 25:0.001714854 26:0.003131484 27:0.040210765 28:-0.038953763 29:-0.036588836 30:-0.013930447 31:-0.02711894 32:-0.002233629 33:0.000932367 34:0.003394461 35:-0.008677847 36:-0.007523662 37:0.001359056 38:0.091768265 39:0.013100598 40:-0.006862528 41:-0.032558501 42:-0.009681459 43:-0.003608564 44:-0.008068607 45:-0.006151152 46:-0.005422756 47:0.006500317 48:-0.01782907 49:0.008045418 50:-0.006899869 51:0.010483854 52:-0.004455488 53:-0.002842478 54:-0.005191083 55:-0.00067315 56:0.004767295 57:0.022633977 58:-0.031117549 59:0.001282496 60:-0.024071885 61:-0.031980045 62:-0.009164826 63:-0.014069644 64:0.001108973 65:-0.04150112 66:0.001299492 67:0.003459158 68:0.000708001 69:-0.025866987 70:-0.002710082 71:0.0030978 72:-0.034270067 73:0.003870036 74:0.027661623 75:0.014162695 76:-0.012677562 77:-0.000497308 78:-0.039168395 79:-0.014953225 80:0.029859645 81:-0.019762103 82:0.001264546 83:-0.015902212 84:-0.031329054 85:-0.004208436 86:9.128e-05 87:0.11414948 88:-0.010368902 89:0.000384486 90:0.024215776 91:0.002285702 
-0 0 5 1:-0.006301125 2:-2.8446124 3:-0.048085645 4:-0.16699295 5:-0.52422064 6:-0.48344859 7:-0.11980244 8:-0.20148231 9:-0.079262331 10:-0.11405504 11:0.036429532 12:-0.03632614 13:0.041815933 14:-0.072674483 15:-0.04205481 16:0.22181496 17:0.1880608 18:-0.77460301 19:0.021044821 20:0.04417754 21:-0.082924269 22:-0.069031261 23:-0.22424994 24:-0.029901048 25:0.050920933 26:-0.025373725 27:0.26122957 28:0.13044503 29:-0.019204913 30:-0.095231444 31:-0.080833957 32:-0.017949153 33:-0.07221242 34:-0.06445165 35:0.039490759 36:-0.10553697 37:-0.010254866 38:0.89575255 39:0.056602933 40:0.034968816 41:-0.3368111 42:-0.074967198 43:-0.061141435 44:0.098869339 45:0.070027076 46:0.001200614 47:0.050421674 48:0.65244752 49:0.17568606 50:-0.086178832 51:0.079015844 52:-0.34206599 53:0.21390179 54:0.059151843 55:0.012157404 56:0.050425805 57:0.03459955 58:-0.073581323 59:0.12769938 60:-0.091616914 61:-0.011499121 62:-0.012272398 63:-0.10240531 64:0.001039784 65:0.074574172 66:-0.010575016 67:0.052287139 68:-0.52905089 69:0.10013086 70:-0.10800156 71:0.021758595 72:0.13428625 73:-0.005377052 74:-0.10030619 75:0.18535635 76:-0.17751753 77:0.010193309 78:0.48804164 79:0.22952844 80:0.14342436 81:0.064579032 82:0.02993241 83:0.12137792 84:0.24123332 85:0.082890086 86:0.020734945 87:-0.1177265 88:0.035984661 89:-0.023079103 90:0.088953055 91:0.000297686 
-0 0 5 1:-0.001680709 2:-0.078276478 3:-0.090967953 4:0.17052808 5:-0.15618739 6:-0.080720998 7:-0.012332337 8:-0.069635116 9:0.009128697 10:-0.033168882 11:-0.035922434 12:0.029779546 13:-0.004041071 14:-0.009384611 15:-0.00165642 16:0.063289523 17:0.10837757 18:-0.19150649 19:0.004573104 20:-0.006782823 21:-0.018857891 22:-0.00597384 23:-0.026130665 24:0.011951474 25:0.014655008 26:0.002593635 27:-0.030791176 28:-0.034699067 29:-0.081032753 30:-0.065691076 31:-0.093207709 32:-0.008113164 33:-0.030585339 34:-0.015081572 35:-0.020955449 36:-0.013977703 37:-0.001241773 38:0.19275135 39:-0.034971751 40:-0.025092518 41:-0.076379485 42:0.024512067 43:-0.015259488 44:-0.038954198 45:0.008471811 46:-0.021054335 47:0.021629702 48:0.19729528 49:0.038318265 50:0.027501052 51:0.022704929 52:-0.041486919 53:0.01327757 54:0.019905224 55:-0.005444281 56:0.014181872 57:0.030604534 58:-0.023136443 59:0.022272164 60:-0.083516531 61:-0.089426108 62:-0.022320125 63:-0.003901741 64:-0.000579125 65:0.049210679 66:-0.003107124 67:-0.042227097 68:-0.11377935 69:0.005952811 70:-0.013548988 71:0.00819734 72:-0.026524419 73:-0.018872786 74:-0.021301247 75:0.038968261 76:-0.060961094 77:0.000353052 78:0.055065937 79:-0.013615538 80:0.062377837 81:-0.012119745 82:0.005574842 83:0.053155541 84:0.006773632 85:0.031919401 86:0.004972048 87:0.087713115 88:0.011229216 89:-0.00090342 90:0.066476338 91:0.003500948 
-0 0 5 1:-0.000858389 2:0.2567271 3:0.11701313 4:0.1280126 5:-0.004831511 6:0.028415257 7:0.004664018 8:-0.032576062 9:0.014388892 10:-0.010483769 11:0.011545267 12:0.041333146 13:0.011881578 14:-0.0043939 15:-0.059776325 16:0.094062373 17:0.065901473 18:-0.14237639 19:-0.00890151 20:0.003668484 21:-0.013081568 22:-0.010184371 23:-0.013639482 24:-0.009696211 25:0.000504685 26:0.002465979 27:0.027148167 28:0.021938682 29:-0.15570881 30:-0.051959079 31:-0.015786065 32:-0.016229747 33:-0.000821972 34:-0.004032287 35:-0.021472806 36:-0.008454486 37:-0.000767259 38:0.077196725 39:-0.080982998 40:0.00560957 41:-0.066721827 42:0.011439354 43:-0.011742793 44:-0.00083893 45:-0.005467867 46:-0.000764383 47:0.007757033 48:0.00511541 49:0.041277006 50:-0.036641963 51:-0.002892819 52:0.004929428 53:0.008966306 54:0.004403611 55:-0.011844325 56:0.011205249 57:0.030479372 58:-0.007276226 59:-0.049199563 60:-0.046674609 61:-0.00182385 62:-0.005029415 63:-0.002391094 64:0.00242768 65:-0.049695477 66:-0.028425563 67:-0.047385521 68:-0.051539034 69:-0.060232233 70:-0.006933278 71:0.0048476 72:0.054964107 73:-0.026779976 74:-0.051027592 75:0.072059877 76:-0.025544977 77:0.001193125 78:-0.002456654 79:-0.037233327 80:0.11733212 81:-0.00823587 82:0.00419842 83:0.001428203 84:0.07105013 85:0.012043382 86:0.000981317 87:0.029757241 88:0.017678348 89:-0.003847258 90:-0.019128487 91:0.002059052 
-0 0 5 1:-0.001297059 2:0.20079076 3:0.039837297 4:0.13819841 5:-0.10971421 6:-0.062766597 7:-0.005480194 8:-0.037417576 9:0.009645598 10:-0.005624088 11:-0.007823098 12:0.03393124 13:-0.001880566 14:-0.009487337 15:-0.14008574 16:0.079819523 17:0.04780652 18:-0.10174725 19:-0.018063752 20:0.003236882 21:-0.012245641 22:0.002049584 23:-0.006171607 24:0.009650399 25:-0.001267223 26:-0.0014591 27:0.008874399 28:-0.010581267 29:-0.059596747 30:-0.046131995 31:-0.042134918 32:-0.014260503 33:-0.011844033 34:-0.000309234 35:-0.023037847 36:-0.009644811 37:-0.000324868 38:0.12235427 39:-0.028388578 40:-0.046987187 41:-0.054807533 42:0.014671649 43:-0.01620047 44:-0.015069186 45:0.006627361 46:-0.011163254 47:0.011208866 48:0.07079044 49:-0.010509256 50:-0.023531247 51:0.029168639 52:-0.019756515 53:0.007142034 54:0.004773902 55:-0.007775112 56:0.010230583 57:0.081353389 58:-0.005569416 59:-0.015366898 60:-0.045049686 61:-0.042276595 62:-0.011622409 63:-0.011827194 64:0.001629179 65:0.012313613 66:-0.021208029 67:-0.061322261 68:-0.043024588 69:-0.011780593 70:-0.010016877 71:0.003442229 72:0.039989173 73:-0.028368883 74:-0.028024124 75:0.036202274 76:-0.032750439 77:0.001198777 78:0.01305147 79:-0.019704938 80:0.093161292 81:-0.037399814 82:0.00508711 83:0.021542663 84:0.009346357 85:0.018562362 86:0.003314001 87:0.056203034 88:0.013940259 89:-0.002761268 90:-0.003218488 91:0.001833404 
-0 2.7023346437182005 0 1:-0.000592306 2:0.62195504 3:-0.079473697 4:0.051342703 5:-0.067760721 6:-0.033663653 7:-0.003079096 8:0.007295603 9:-0.007183032 10:-0.007597534 11:-0.008131671 12:0.003295839 13:-0.004217807 14:-0.003839372 15:0.059566118 16:-0.001340291 17:0.002255803 18:-0.059862889 19:0.00295572 20:-0.00884041 21:0.002197643 22:0.005320016 23:-0.004073084 24:-0.00356351 25:-0.000281956 26:0.00398878 27:-0.035385359 28:-0.022703532 29:-0.022653904 30:-0.023229519 31:-0.032716017 32:-0.002164461 33:0.000460879 34:0.006444946 35:-0.002793979 36:-0.009146114 37:0.002285884 38:0.001968137 39:-0.021149645 40:-0.01834554 41:-0.011694762 42:-0.00469843 43:-0.006454865 44:-0.011490428 45:-0.000967315 46:-0.004993434 47:0.007280681 48:-0.019250523 49:0.004168516 50:-0.032511357 51:0.008465906 52:-0.009583705 53:0.003005199 54:-0.006796092 55:0.001753702 56:0.003342511 57:0.006773906 58:-0.037598681 59:0.006315186 60:-0.013894164 61:-0.017010072 62:-0.002646376 63:-0.000150742 64:0.000768046 65:-0.031894013 66:-0.009172966 67:0.008011616 68:-0.032098643 69:-0.003738359 70:0.001560824 71:0.004571625 72:-0.041404214 73:-0.005000693 74:-0.012771191 75:-0.001444477 76:-0.009369774 77:0.000412299 78:-0.04619332 79:-0.005398856 80:0.025062814 81:-0.010299189 82:0.001684833 83:0.020914929 84:0.017820206 85:-0.003364941 86:0.001131346 87:0.055397507 88:-0.003748429 89:-0.000279301 90:-0.004601962 91:0.001628542 
-0.4071756427010102 5 0 1:-0.000640708 2:0.64739847 3:-0.040593605 4:0.023212044 5:-0.042589955 6:-0.0013941 7:-0.003528704 8:-0.023079948 9:0.008358364 10:-0.002595458 11:0.003800729 12:0.00624997 13:-0.005829752 14:0.000121683 15:0.039304104 16:-0.058483489 17:0.022626715 18:-0.052677382 19:-0.00495288 20:-0.00546021 21:0.010188821 22:0.014849679 23:-0.000179645 24:0.013992112 25:0.004085667 26:0.004628064 27:-0.013965207 28:-0.060845207 29:-0.034114085 30:-0.031963408 31:-0.022459248 32:0.006785444 33:-0.000296279 34:0.001293482 35:-0.004112102 36:0.000995947 37:0.000530724 38:0.017950801 39:-0.006725583 40:-0.01505314 41:-0.033801097 42:0.009094433 43:-0.001651373 44:-0.012500013 45:-0.012894004 46:-0.005356242 47:0.0056954 48:-0.094884403 49:0.007360329 50:-0.008431048 51:-0.00657727 52:0.00727728 53:-0.006599613 54:0.000943599 55:-0.002536893 56:0.004279924 57:0.054343056 58:-0.02178568 59:-0.009728457 60:-0.023573771 61:-0.017987624 62:-0.006338577 63:-0.010135032 64:0.001102347 65:-0.003547381 66:0.00860692 67:0.000596406 68:-0.000882414 69:-0.009729213 70:-0.00250337 71:0.002870308 72:-0.089073293 73:-6.0673e-05 74:0.029893687 75:0.024408761 76:-0.002170207 77:-0.000574026 78:-0.070241109 79:-0.028409919 80:0.022927394 81:-0.004156564 82:0.000324374 83:-0.055757307 84:-0.017360549 85:-0.004826715 86:0.000771338 87:0.044061895 88:-0.009836314 89:-0.000659856 90:0.020053167 91:0.001052672 
-1.3830652536293231 5 0 1:-0.00036007 2:0.67733347 3:-0.026433889 4:-0.01482926 5:-0.05526242 6:0.007712957 7:0.000996586 8:-0.024570821 9:0.001089167 10:0.020025164 11:0.017868586 12:0.017857889 13:-0.003308625 14:-0.002687124 15:0.025954658 16:-0.052295063 17:0.015553989 18:-0.044446465 19:0.001318076 20:-0.007860772 21:0.000445495 22:0.011758842 23:0.008479545 24:-0.002592311 25:-0.001726035 26:0.005560707 27:0.032797072 28:-0.046904501 29:-0.014041916 30:-0.020076593 31:-0.03096237 32:-0.002991921 33:-0.004914952 34:-3.1758e-05 35:-0.024057919 36:-0.00311519 37:0.001005132 38:0.033576712 39:0.012958447 40:-0.005901061 41:-0.025667159 42:-0.001047446 43:-0.005108329 44:-0.010524231 45:-0.005785495 46:-0.001301624 47:0.005829973 48:-0.093447439 49:0.017047888 50:-0.003669342 51:0.002705379 52:0.021632055 53:-0.016608717 54:0.007534728 55:0.0013997 56:0.007689056 57:-0.000385197 58:-0.028247654 59:-0.006260598 60:-0.011412065 61:-0.008462525 62:-0.010292436 63:-0.002213844 64:0.00279759 65:0.00129582 66:-0.003091016 67:-0.002221873 68:0.001432633 69:-0.025981136 70:0.004579624 71:0.00235831 72:-0.058601227 73:0.004645162 74:0.012643661 75:0.012417525 76:-0.007561609 77:-0.000251655 78:-0.14383516 79:-0.019792207 80:0.018020829 81:-0.010750766 82:0.0012387 83:-0.057775237 84:-0.015733248 85:-0.00277234 86:0.000829573 87:0.12126727 88:-0.005878053 89:-0.000664775 90:-0.006651678 91:0.000707922 
-0 0 5 1:-0.001098981 2:0.26064187 3:0.017131057 4:0.14872536 5:-0.045320455 6:-0.013632852 7:0.007487714 8:-0.023239268 9:-0.0020625 10:0.004330217 11:-0.005030352 12:0.067739628 13:-0.008345222 14:-0.005316808 15:-0.16070141 16:0.03359418 17:0.032676253 18:-0.095371991 19:-0.006991667 20:0.017668542 21:-0.000680134 22:-0.010127121 23:-0.015488465 24:-0.017921587 25:0.003740806 26:0.000775511 27:-0.05640918 28:0.000419086 29:-0.080199316 30:-0.053152468 31:-0.042808421 32:-0.007111541 33:0.006419277 34:-0.002633819 35:-0.04202823 36:-0.010022593 37:-6.5948e-05 38:0.10239042 39:-0.025351513 40:-0.006180481 41:-0.061113935 42:0.007119417 43:0.009798332 44:-0.018220004 45:0.002647463 46:-0.007521883 47:0.011916107 48:0.10501476 49:0.042226583 50:-0.008445137 51:0.011116619 52:-0.010755189 53:0.00635585 54:0.000572133 55:0.004533326 56:0.006333328 57:-0.038608931 58:0.005248645 59:-0.001993156 60:-0.032475054 61:-0.030468829 62:-0.024459094 63:-0.015098164 64:0.000227525 65:-0.024784805 66:0.002220889 67:-0.040115584 68:-0.071208231 69:-0.04708403 70:-0.001876181 71:0.00321537 72:-0.010238086 73:0.021023102 74:-0.014635844 75:0.028305942 76:-0.024939222 77:-0.000728624 78:-0.019006753 79:-0.032368481 80:0.12533702 81:-0.030094268 82:0.002754519 83:0.056438915 84:0.019471727 85:-0.004782655 86:0.00275817 87:0.061300259 88:-0.007137679 89:0.000148123 90:0.02259272 91:0.002759316 
-0 0 5 1:0.000204982 2:0.28707141 3:-0.008210954 4:0.1274744 5:-0.071836628 6:0.010857081 7:-0.003324029 8:-0.011807902 9:-0.001139901 10:0.007354671 11:-0.033123013 12:0.01961533 13:-0.004638891 14:-0.009660966 15:-0.12045284 16:0.013942356 17:0.049347181 18:-0.051256981 19:-0.010736719 20:0.013517629 21:-0.008037277 22:-0.003763 23:-0.023198029 24:0.004519946 25:-0.00333051 26:0.002087345 27:0.005641139 28:0.026454886 29:-0.048107613 30:-0.038595792 31:-0.027008031 32:-0.013555111 33:-0.002942437 34:-0.010138245 35:-0.025750453 36:-0.01079258 37:-0.000630464 38:0.064047441 39:0.029541561 40:-0.046420164 41:-0.036723386 42:0.017084379 43:0.010060038 44:-0.020898975 45:0.001097639 46:-0.003416878 47:0.0110819 48:0.079325967 49:0.00967261 50:-0.014924862 51:0.027646622 52:-0.008591616 53:0.013563198 54:-0.003559352 55:0.002769929 56:0.005931085 57:0.013075926 58:0.003076176 59:0.00307331 60:-0.031382784 61:-0.040285777 62:-0.023374313 63:-0.010621303 64:-0.000496726 65:0.006108677 66:0.012727785 67:-0.053086627 68:-0.056314051 69:-0.019877991 70:-0.002288662 71:0.00108168 72:-0.007440664 73:0.005142339 74:0.00305304 75:0.013744814 76:-0.019652374 77:-0.001382657 78:-0.033393145 79:-0.012643896 80:0.076241896 81:-0.025365651 82:0.003518767 83:0.078502141 84:-0.002366077 85:-0.012601122 86:0.002886751 87:0.050001472 88:0.003026804 89:2.4601e-05 90:-0.006656812 91:0.002267762 
